#ifndef TRUE_SNN_WEIGHTS_GENERATED_H_
#define TRUE_SNN_WEIGHTS_GENERATED_H_

#include "../snn_top.h"

static const w_t conv1_w[C1 * 1 * K * K] = {w_t(-1.026611328), w_t(0.407645911), w_t(0.5226733088), w_t(-0.4757987261), w_t(-1.366198778), w_t(2.055971146), w_t(-0.4972804785), w_t(-1.306215882), w_t(-1.122819781), w_t(0.429063201), w_t(-0.7864341736), w_t(-0.0297543928), w_t(-1.072238564), w_t(-0.9153910875), w_t(-0.3587110043), w_t(-0.8529691696), w_t(-1.501841068), w_t(0.5697188973), w_t(-2.267566204), w_t(-0.8811286688), w_t(1.088038325), w_t(0.009802886285), w_t(0.003090467537), w_t(1.884096622), w_t(0.6026660204), w_t(0.6949267387), w_t(-2.70353961), w_t(1.075676799), w_t(0.4820163846), w_t(-1.992812395), w_t(0.3488741517), w_t(-0.05799388885), w_t(-0.7579795718), w_t(0.762432158), w_t(0.9218689799), w_t(-0.3951590657), w_t(-1.624443769), w_t(-1.021680832), w_t(-1.271395683), w_t(0.1173325181), w_t(-0.2088319659), w_t(-0.8134687543), w_t(0.3131434321), w_t(1.673583388), w_t(-0.5912820101), w_t(-0.5263498425), w_t(-1.867040157), w_t(-0.7787428498), w_t(2.157269955), w_t(0.3124147356), w_t(0.08583503217), w_t(0.08093247563), w_t(0.2353428155), w_t(1.283157468), w_t(-0.05080079287), w_t(-1.015988111), w_t(-1.142199159), w_t(1.052927852), w_t(0.2630747259), w_t(-1.580291986), w_t(0.8501897454), w_t(0.555023253), w_t(-2.084477186), w_t(-0.8748101592), w_t(-0.9872692823), w_t(-0.9042842984), w_t(-0.7562065721), w_t(-0.4476751089), w_t(-1.283400536), w_t(0.817558825), w_t(1.139856458), w_t(0.6314570904), w_t(-1.268404365), w_t(-1.290372849), w_t(-0.4179368019), w_t(-0.7916632891), w_t(0.2202681601), w_t(-1.055649519), w_t(-0.3030872643), w_t(1.012654305), w_t(0.9802693725), w_t(-0.5872673392), w_t(-0.1163975447), w_t(-0.1387361586), w_t(-1.391714215), w_t(-0.5132732391), w_t(-2.61961031), w_t(2.505114079), w_t(0.4512491524), w_t(-0.007308724802), w_t(-1.351531386), w_t(1.516067982), w_t(0.1317912936), w_t(0.1627368331), w_t(-0.4725677073), w_t(-0.188267529), w_t(1.490016937), w_t(0.03504046798), w_t(1.496986389), w_t(0.2447815537), w_t(0.639175415), w_t(-1.960953355), w_t(-0.3417153656), w_t(-1.750896811), w_t(-0.8909425735), w_t(-1.079084277), w_t(-0.5847587585), w_t(2.534387827), w_t(0.5479020476), w_t(-0.146432519), w_t(1.669508815), w_t(-0.494875133), w_t(0.3629257977), w_t(0.9668174982), w_t(-1.735164404), w_t(-1.388213515), w_t(-2.137433767), w_t(-0.1561947614), w_t(0.5894523263), w_t(0.8237730265), w_t(-2.07784605), w_t(0.2927964628), w_t(0.4639802873), w_t(-0.9023457766), w_t(1.975556612), w_t(-0.2115930319), w_t(0.05818850547), w_t(1.141602278), w_t(0.04154460877), w_t(1.906049848), w_t(0.6197331548), w_t(-0.6367872953), w_t(-0.5803883672), w_t(-1.946506381), w_t(-1.679303885), w_t(-1.661387324), w_t(-0.4838466048), w_t(0.331717819), w_t(-0.5980929136), w_t(-0.3981439471), w_t(0.1914755255), w_t(-1.199258089), w_t(-1.11931777), w_t(2.334263563)};
static const w_t conv1_b[C1] = {w_t(0.03928852081), w_t(1.163598061), w_t(-0.09514166415), w_t(-0.4512648284), w_t(0.263420403), w_t(-0.5620020032), w_t(0.07185962796), w_t(0.345312804), w_t(0.2891135514), w_t(-0.04555544257), w_t(-0.5486672521), w_t(0.1353559494), w_t(-0.01574337482), w_t(-0.4433792233), w_t(-0.1558038443), w_t(-0.06616565585)};

static const w_t conv2_w[C2 * C1 * K * K] = {w_t(0.7973645329), w_t(0.1482507586), w_t(-0.126376316), w_t(0.06163340807), w_t(0.1740591377), w_t(-0.3907383084), w_t(0.03505890816), w_t(0.5334377885), w_t(-0.1928668916), w_t(0.2253556848), w_t(-0.126796633), w_t(0.07281624526), w_t(-0.2506950498), w_t(-0.3472701013), w_t(-0.2194568515), w_t(-0.08557979763), w_t(0.04921119288), w_t(0.4964930415), w_t(-0.7234133482), w_t(-0.3829242885), w_t(-0.742405355), w_t(-0.3382116854), w_t(-0.3246888518), w_t(-0.4697159827), w_t(-0.4529457092), w_t(-0.4550663829), w_t(-1.029348016), w_t(-0.03354962915), w_t(-0.2377920449), w_t(-0.0884533897), w_t(-0.1919199079), w_t(-0.3926102221), w_t(-0.2990761101), w_t(-0.6908447742), w_t(-0.07058769464), w_t(0.1480019242), w_t(-0.08575733006), w_t(0.2535460889), w_t(0.2036973238), w_t(-0.4889961183), w_t(0.531968534), w_t(0.04311318696), w_t(-0.5778916478), w_t(0.6722189784), w_t(0.5519234538), w_t(-0.6634425521), w_t(-0.9204419851), w_t(-1.116500974), w_t(-0.4502331614), w_t(-0.5361628532), w_t(-0.8035702705), w_t(-1.109171629), w_t(-0.8376823068), w_t(-0.7385488153), w_t(0.2341222018), w_t(0.1080753207), w_t(0.3432351947), w_t(0.4710339606), w_t(-0.008184815757), w_t(0.1220359653), w_t(-0.001910058549), w_t(0.5209903121), w_t(0.3946195245), w_t(-0.1723732203), w_t(0.1206338406), w_t(0.2153796405), w_t(-0.5162044764), w_t(0.2640922964), w_t(0.1094813272), w_t(-0.8688756227), w_t(0.06510534883), w_t(-0.1982497275), w_t(-0.1573174745), w_t(0.379522711), w_t(0.06520716846), w_t(-0.18264696), w_t(0.329048723), w_t(0.4150090814), w_t(0.4420576394), w_t(0.3390398026), w_t(0.5570118427), w_t(-0.1232809722), w_t(-0.4338619411), w_t(-0.3061951101), w_t(-0.09613891691), w_t(-0.2580062151), w_t(-0.3437253833), w_t(-0.6277795434), w_t(0.0926316902), w_t(0.2721988261), w_t(-0.1874886602), w_t(0.07582297176), w_t(0.2626128495), w_t(-0.437874198), w_t(-0.05411861092), w_t(0.1763336062), w_t(-0.4082452059), w_t(-0.03228285164), w_t(-0.3896116912), w_t(-0.1627751291), w_t(-0.001559526077), w_t(-0.2433982193), w_t(-0.124958545), w_t(0.4064908326), w_t(0.1760755032), w_t(-0.1677728593), w_t(0.4723232687), w_t(0.8325708508), w_t(0.7456018329), w_t(0.699370563), w_t(0.1448858678), w_t(-0.7595742345), w_t(0.01249098126), w_t(-1.28280282), w_t(-0.2591615617), w_t(0.1673245877), w_t(-1.067427635), w_t(0.2305707484), w_t(0.2547791898), w_t(-0.1277864575), w_t(0.2488540411), w_t(0.1391822398), w_t(0.04118561), w_t(-0.009215850383), w_t(0.2550891042), w_t(-0.3069753051), w_t(-0.07435533404), w_t(0.1151459962), w_t(0.2208847106), w_t(0.1547836363), w_t(-0.06785000116), w_t(0.3037463725), w_t(-0.5148413181), w_t(-0.06801225245), w_t(0.3682630658), w_t(0.3365960121), w_t(0.451798588), w_t(0.4167055786), w_t(0.9764745831), w_t(0.640417695), w_t(0.8087932467), w_t(1.163915038), w_t(1.153839707), w_t(1.701008201), w_t(-0.7478402853), w_t(-0.6549508572), w_t(-1.196553111), w_t(0.2454468012), w_t(0.2963223755), w_t(0.603322506), w_t(-0.1405609548), w_t(0.1128560677), w_t(0.1930328012), w_t(0.1568819582), w_t(0.08288146555), w_t(-0.2007606328), w_t(-0.196128279), w_t(-0.29781425), w_t(0.3318637609), w_t(-0.001720481436), w_t(-0.3515981138), w_t(-0.2098791599), w_t(-0.5766400695), w_t(-0.9909325838), w_t(-0.8057584763), w_t(-0.2910760641), w_t(-0.4393824339), w_t(-0.003532972187), w_t(-0.2004781663), w_t(0.2665282786), w_t(-0.326872468), w_t(-0.7367221713), w_t(-0.7448922992), w_t(-0.9038511515), w_t(-0.4048089683), w_t(-0.6240411997), w_t(-0.4979427755), w_t(-0.2119845003), w_t(-0.2677737176), w_t(-0.2027426809), w_t(1.133222342), w_t(0.4443288445), w_t(0.7596731782), w_t(1.49515748), w_t(0.1152943373), w_t(0.7358557582), w_t(0.03763218969), w_t(-0.1093759537), w_t(0.00136976887), w_t(-0.3431686759), w_t(0.04181710631), w_t(0.5335482359), w_t(-0.1401199847), w_t(-0.4000051022), w_t(-0.3404090703), w_t(0.4093255699), w_t(0.231583789), w_t(-0.4165423512), w_t(-1.196333051), w_t(-0.0710432753), w_t(0.1823336333), w_t(0.5237156749), w_t(0.3871706426), w_t(0.2695087194), w_t(0.321004957), w_t(0.741209805), w_t(0.0995035097), w_t(0.2058752924), w_t(0.4982085526), w_t(0.06260777265), w_t(0.6337672472), w_t(0.1933362186), w_t(0.5122013092), w_t(0.1376196146), w_t(0.04292763397), w_t(0.07172094285), w_t(1.059888124), w_t(0.8153832555), w_t(0.4828283489), w_t(0.1895295382), w_t(-0.4269771278), w_t(1.033814311), w_t(0.08333812654), w_t(0.0476218164), w_t(0.494279474), w_t(-0.4377801418), w_t(-0.1764147282), w_t(-0.5508090258), w_t(1.377329111), w_t(0.5485895276), w_t(-0.1368207783), w_t(-0.076099962), w_t(-0.004961729981), w_t(-0.5709393024), w_t(-0.2397726327), w_t(-0.1687967479), w_t(-0.06309251487), w_t(-0.07491149753), w_t(-0.155929178), w_t(-0.5352595448), w_t(-0.2608688474), w_t(0.1207790673), w_t(-0.2807795703), w_t(0.3352334797), w_t(0.8995125294), w_t(0.9046816826), w_t(0.7313384414), w_t(0.5254363418), w_t(2.095410347), w_t(0.3627944887), w_t(0.7261186242), w_t(0.6970285177), w_t(0.0275098756), w_t(0.3425103724), w_t(0.1913928688), w_t(0.3607185483), w_t(0.3943983316), w_t(0.476557225), w_t(-0.2217682004), w_t(0.1132306606), w_t(0.1753220558), w_t(-0.2187912017), w_t(-0.2628172934), w_t(-0.3909273148), w_t(-0.09246908128), w_t(0.2651059031), w_t(0.2298902869), w_t(0.06599251181), w_t(0.1831050962), w_t(0.1740736514), w_t(-0.01906941645), w_t(-0.1223573014), w_t(-0.188210085), w_t(0.2509714067), w_t(0.1605079323), w_t(0.5461131334), w_t(0.09305161238), w_t(-0.1907648146), w_t(0.2618440092), w_t(-0.3349535763), w_t(-0.141720891), w_t(-0.1838744879), w_t(0.3944179416), w_t(0.741273284), w_t(1.10504663), w_t(-0.09069111198), w_t(-0.223433122), w_t(-1.003049135), w_t(0.1022690162), w_t(0.1011051908), w_t(-0.3452481329), w_t(0.4361178577), w_t(0.6296013594), w_t(0.01871523261), w_t(-0.06832551956), w_t(-0.1203125268), w_t(-0.03440368921), w_t(-0.1466414779), w_t(-0.05379255489), w_t(-0.1339365691), w_t(0.3060234785), w_t(-0.1773986965), w_t(0.2312281132), w_t(-0.09932245314), w_t(0.164774403), w_t(-0.4298674166), w_t(0.1056237519), w_t(-0.250534296), w_t(0.2355303615), w_t(1.040505767), w_t(0.8195545673), w_t(0.9376439452), w_t(0.8471564651), w_t(0.842064321), w_t(0.8445122838), w_t(-0.05056787282), w_t(-0.09967045486), w_t(-0.2837995291), w_t(-0.1514891982), w_t(0.172122851), w_t(0.2415893823), w_t(-0.2617211342), w_t(0.1983780414), w_t(-0.06433103234), w_t(0.0003693428298), w_t(0.2210018635), w_t(-0.1529941112), w_t(-0.6933885813), w_t(-0.7533293366), w_t(-0.5811000466), w_t(-0.5114601851), w_t(-0.4236422181), w_t(-0.5831044316), w_t(0.380789578), w_t(-0.01074029785), w_t(0.3100690544), w_t(0.1165446416), w_t(-0.05620364845), w_t(0.01947910525), w_t(0.6564832926), w_t(-0.07121522725), w_t(0.02863646857), w_t(0.1257672906), w_t(0.2334052473), w_t(0.2031244189), w_t(0.1305931956), w_t(0.3507217467), w_t(-0.1125266403), w_t(-0.5106065869), w_t(-0.2734561563), w_t(-0.2364098281), w_t(0.05749123916), w_t(-0.07641264051), w_t(0.06968600303), w_t(-0.4924816787), w_t(-0.1559670866), w_t(-0.114225626), w_t(-0.04602953419), w_t(0.07755364478), w_t(0.1741229147), w_t(-0.4552746713), w_t(-0.4463993311), w_t(-0.2725113928), w_t(-0.6048793197), w_t(-0.5314536095), w_t(0.2055751234), w_t(-0.1208795905), w_t(0.07688160986), w_t(-0.09706208855), w_t(-0.02093492262), w_t(0.2269373685), w_t(-0.04059241712), w_t(0.3128131032), w_t(0.1917650253), w_t(-0.3127773404), w_t(-0.2033174783), w_t(-0.1359823942), w_t(-0.5619540215), w_t(-0.2730231583), w_t(-0.135292843), w_t(-0.3919973969), w_t(0.3380331397), w_t(0.2891820073), w_t(-0.01183803938), w_t(0.3888130486), w_t(0.5774188638), w_t(0.08143626899), w_t(-0.397595197), w_t(0.3587110639), w_t(-0.03411702439), w_t(-0.1808095276), w_t(-0.09208195657), w_t(1.148177981), w_t(0.3382891417), w_t(0.8460540771), w_t(0.9590423107), w_t(0.3410809338), w_t(-0.1352384984), w_t(0.1238340884), w_t(-0.1247558817), w_t(-0.1572182328), w_t(-0.3113784194), w_t(-0.2360127866), w_t(-0.3803008497), w_t(0.3299571872), w_t(0.1157275513), w_t(0.1407978237), w_t(0.05176696554), w_t(1.143021822), w_t(0.8944091201), w_t(0.5135167241), w_t(0.5798966289), w_t(0.6232498288), w_t(0.3150562346), w_t(0.6189106107), w_t(-0.2436668724), w_t(-0.1651853323), w_t(0.03121240623), w_t(0.06540561467), w_t(-0.270255059), w_t(0.1402322799), w_t(-0.3649151623), w_t(0.2502215207), w_t(-0.6252532005), w_t(-0.04976366833), w_t(-0.4395953715), w_t(0.3131798208), w_t(1.287640214), w_t(0.4525730312), w_t(0.1252546906), w_t(0.3539808393), w_t(-0.7860868573), w_t(0.3698532581), w_t(0.6357731223), w_t(-0.2605627775), w_t(0.1545204967), w_t(0.4884285629), w_t(0.9808301926), w_t(0.0699211359), w_t(0.2620768845), w_t(0.8364443779), w_t(0.04124684259), w_t(0.05392155424), w_t(-0.2146122605), w_t(0.002276084851), w_t(-0.1005206257), w_t(-0.5588882565), w_t(-0.1730281115), w_t(-0.01024007704), w_t(-0.3541320562), w_t(0.2562018931), w_t(0.0328496024), w_t(0.4474373162), w_t(0.3570024371), w_t(0.1229345798), w_t(0.4220119119), w_t(-0.2536267638), w_t(-0.1822043061), w_t(0.2516110539), w_t(0.09489405155), w_t(0.2432392687), w_t(0.7619265318), w_t(0.6984127164), w_t(0.6201038957), w_t(1.122830629), w_t(0.4747255445), w_t(0.7888886929), w_t(1.22801578), w_t(-0.4598391354), w_t(-0.3297340572), w_t(-0.4511447549), w_t(-0.9060784578), w_t(-0.5969979763), w_t(0.2186410725), w_t(-0.7714582682), w_t(-0.318831861), w_t(-0.02150694653), w_t(-0.1007290184), w_t(-0.1375261098), w_t(-0.08935135603), w_t(0.1248689964), w_t(0.0734378472), w_t(0.4369727075), w_t(-0.322362721), w_t(0.4997429252), w_t(0.9527875781), w_t(0.4953207374), w_t(0.0127629051), w_t(0.1183224469), w_t(1.276745558), w_t(0.4919214547), w_t(-0.1472775042), w_t(0.5118120909), w_t(0.8225798011), w_t(0.6064516306), w_t(-0.04995254055), w_t(-0.2178213447), w_t(-0.1955852807), w_t(-0.88843292), w_t(-0.3998538554), w_t(-0.100798957), w_t(-0.7933228016), w_t(-0.1058792621), w_t(-0.1590482742), w_t(-0.0780453831), w_t(0.01211710554), w_t(-0.3329670429), w_t(-0.7803931832), w_t(-0.7867792249), w_t(-0.4200308919), w_t(-1.159018278), w_t(-0.750762403), w_t(-0.6346731186), w_t(-0.1183796003), w_t(-0.3206912279), w_t(-0.1040402055), w_t(0.2389023751), w_t(0.3141729236), w_t(0.7671342492), w_t(-0.2730107605), w_t(0.8843294978), w_t(1.113653183), w_t(0.07285375893), w_t(-0.3286899924), w_t(0.1019764319), w_t(0.3345337808), w_t(-0.2256688923), w_t(0.2439934313), w_t(0.381749481), w_t(0.1244374737), w_t(0.7373415232), w_t(-0.2307920456), w_t(-0.2032966763), w_t(-0.2400638014), w_t(-0.8032076955), w_t(-0.5376544595), w_t(-0.5978007317), w_t(-1.215909958), w_t(-0.9150540233), w_t(-0.9071914554), w_t(-0.5064253211), w_t(-0.1437100619), w_t(-0.7681334615), w_t(0.04841030762), w_t(-0.267706573), w_t(-0.25519678), w_t(0.3217737675), w_t(-0.2206912339), w_t(0.01411963627), w_t(-0.1068661138), w_t(0.04536097124), w_t(0.01808449998), w_t(0.5262401104), w_t(0.03986984864), w_t(0.1816806346), w_t(0.3694604933), w_t(0.1354583651), w_t(0.324033767), w_t(-0.224218756), w_t(0.05713221803), w_t(-0.003003128804), w_t(-0.4313582182), w_t(-0.08587480336), w_t(-0.8000406623), w_t(-0.9644482136), w_t(-0.6474975944), w_t(-1.076022983), w_t(0.09527834505), w_t(0.30813995), w_t(-0.2356971055), w_t(0.3674001098), w_t(0.4798262119), w_t(0.08009371907), w_t(0.01852235943), w_t(0.1528962851), w_t(0.7109421492), w_t(0.1533850431), w_t(0.6517004371), w_t(-0.2968162894), w_t(0.3855819702), w_t(0.4060455859), w_t(-0.2817837), w_t(-0.5019379258), w_t(0.006146967877), w_t(-0.4749576747), w_t(-0.03837343305), w_t(-0.08775805682), w_t(0.2500080466), w_t(-0.1252935678), w_t(-0.1617962569), w_t(-0.1641540527), w_t(-0.00770800747), w_t(0.3751780987), w_t(-0.371483475), w_t(0.05803629756), w_t(-0.2218275517), w_t(-0.6064958572), w_t(-0.4561577737), w_t(-0.2530890703), w_t(-0.4477250874), w_t(-0.2461542338), w_t(-0.4677200019), w_t(-0.7543165088), w_t(-0.4924050868), w_t(0.0943473056), w_t(0.5414464474), w_t(-0.04577815533), w_t(0.5074037313), w_t(0.5590283871), w_t(0.2324048877), w_t(-0.2333739996), w_t(0.721345067), w_t(-0.2042739987), w_t(-0.00154280162), w_t(0.001527348999), w_t(0.3025146425), w_t(0.01361937076), w_t(-0.1991482377), w_t(0.05850907043), w_t(-0.1646306515), w_t(-0.5393239856), w_t(-0.3416948318), w_t(-0.6868866086), w_t(-0.3993929029), w_t(-0.2434761226), w_t(-0.2229345441), w_t(-0.7389359474), w_t(0.1308527738), w_t(-0.2219424397), w_t(-1.20362401), w_t(0.2908762395), w_t(0.3322944343), w_t(0.2277616411), w_t(1.507521391), w_t(0.5272992849), w_t(0.5716663599), w_t(1.045123577), w_t(0.5378207564), w_t(0.6805310845), w_t(-0.08061364293), w_t(0.08806292713), w_t(-0.6574177146), w_t(-0.03841941431), w_t(-0.2255830616), w_t(-1.2485888), w_t(-0.06220328435), w_t(-0.2352400422), w_t(-1.280613899), w_t(0.1804458648), w_t(0.08043681085), w_t(0.1845353097), w_t(-0.2926826775), w_t(0.1030967981), w_t(0.09198018163), w_t(0.6744878292), w_t(0.2243047655), w_t(0.2826513052), w_t(-0.331137836), w_t(-0.1749087572), w_t(-0.121983856), w_t(0.3693122268), w_t(0.504022181), w_t(-0.3675093055), w_t(-0.5362852216), w_t(0.1453941166), w_t(-0.5564987659), w_t(-0.204522565), w_t(-0.1443967968), w_t(-0.5486306548), w_t(0.1686497033), w_t(0.05284096301), w_t(-0.4498264492), w_t(0.2065713704), w_t(-0.2022800297), w_t(-0.3188923597), w_t(-0.1593882442), w_t(-0.1315542608), w_t(-0.3174869418), w_t(-0.07871235162), w_t(0.06267088652), w_t(-0.806666851), w_t(0.5922415257), w_t(0.4573725164), w_t(-1.080659628), w_t(-0.1831192076), w_t(0.0298919417), w_t(-1.034262538), w_t(0.1460379362), w_t(-0.1736187339), w_t(-1.406831264), w_t(-0.2313245088), w_t(-0.290581584), w_t(-1.879308343), w_t(0.2968443632), w_t(-0.02856736444), w_t(-0.1528183669), w_t(0.1958036572), w_t(0.1249056086), w_t(0.274739027), w_t(0.2263029814), w_t(-0.1304507852), w_t(-0.2944275737), w_t(-0.5926300287), w_t(-0.1074100882), w_t(0.142699793), w_t(-0.4818931222), w_t(0.4439084232), w_t(0.2659469545), w_t(0.1678266823), w_t(0.8018710017), w_t(0.08263824135), w_t(0.5446491241), w_t(0.6117665172), w_t(0.935370326), w_t(0.8110431433), w_t(1.496678352), w_t(1.224473238), w_t(0.595623374), w_t(1.117108583), w_t(0.5712217093), w_t(-0.1804366559), w_t(0.04575597495), w_t(-0.4937986434), w_t(-0.5017032623), w_t(-0.3045247793), w_t(-0.316901058), w_t(-0.9270635843), w_t(-0.1535022259), w_t(0.3927179277), w_t(-0.1044786125), w_t(-4.316863487e-05), w_t(-0.0319919847), w_t(-0.08738251776), w_t(0.1896411777), w_t(-0.3240950406), w_t(0.116415292), w_t(-0.06825502962), w_t(-0.3281523585), w_t(-0.07865042239), w_t(-0.0781166777), w_t(0.5357469916), w_t(0.6556583643), w_t(0.3324380815), w_t(0.6374816895), w_t(0.3467029929), w_t(0.6474701762), w_t(0.1934904754), w_t(-0.05835350603), w_t(0.03592342511), w_t(0.0484483391), w_t(-0.1490835547), w_t(0.2471460551), w_t(0.2694151998), w_t(0.2967050374), w_t(0.295737654), w_t(0.7974355817), w_t(0.4814755321), w_t(-0.2842563987), w_t(-0.4866088033), w_t(0.05309807882), w_t(-0.4688108563), w_t(-1.004199624), w_t(-0.5627572536), w_t(-0.8945478201), w_t(-0.4025578797), w_t(0.6787837148), w_t(0.4873613119), w_t(-0.1161836162), w_t(0.3912959993), w_t(-0.2286468595), w_t(-0.1293654889), w_t(0.2653919756), w_t(-0.3798162937), w_t(-0.3577038348), w_t(0.04575635493), w_t(-0.1687951386), w_t(-0.2398081273), w_t(-0.2855193913), w_t(-0.280066371), w_t(-0.1517434269), w_t(-0.1484080106), w_t(-0.2069340795), w_t(-0.1306955814), w_t(0.04825490713), w_t(0.3570742309), w_t(-0.3635988235), w_t(0.1566827744), w_t(-0.214929387), w_t(-0.5398458242), w_t(0.1229645759), w_t(-0.2559542358), w_t(-0.2442457825), w_t(-0.3355663717), w_t(-0.3289319575), w_t(-0.1646573544), w_t(-0.1071856171), w_t(0.06127569079), w_t(0.002617479069), w_t(0.5648442507), w_t(-0.2277407795), w_t(-0.2984509766), w_t(0.1562804282), w_t(-0.2469106913), w_t(-0.5652261972), w_t(-0.04011753574), w_t(-0.8156701326), w_t(-0.6514812708), w_t(-0.3081209958), w_t(-0.5437114835), w_t(0.264628917), w_t(-0.2101495415), w_t(0.2345307022), w_t(-0.08262077719), w_t(0.4470370114), w_t(0.39620772), w_t(0.2703328431), w_t(0.7461523414), w_t(0.3557521403), w_t(0.07414208353), w_t(0.2171793431), w_t(0.05646257102), w_t(0.2714716792), w_t(0.4224828184), w_t(0.4421512187), w_t(0.2000497431), w_t(0.7216296792), w_t(0.1084847972), w_t(-0.3677282333), w_t(0.5516089201), w_t(-0.07432518154), w_t(-0.6315549612), w_t(-0.3830064535), w_t(-0.6086374521), w_t(-0.6829136014), w_t(-0.7603771687), w_t(-0.7361393571), w_t(-0.2842251956), w_t(0.3345525563), w_t(0.2231868207), w_t(0.2298331112), w_t(0.3819820583), w_t(0.3182806373), w_t(0.5626330376), w_t(0.1582708955), w_t(0.3375575244), w_t(0.1492099911), w_t(-0.3081859052), w_t(-0.2022638321), w_t(0.3482496142), w_t(-0.007299640682), w_t(0.564252615), w_t(0.5335675478), w_t(0.8933150768), w_t(0.7508473992), w_t(0.1554385573), w_t(-0.2630524039), w_t(-0.1083174944), w_t(0.3396870792), w_t(0.2980073988), w_t(0.5560511947), w_t(0.150514394), w_t(0.1572534293), w_t(0.4086648822), w_t(0.100186266), w_t(0.1826815158), w_t(0.522138834), w_t(0.3834004402), w_t(0.4240934253), w_t(0.2688255012), w_t(0.7731218934), w_t(0.5866220593), w_t(0.2145594805), w_t(0.9204344749), w_t(-0.06998414546), w_t(-0.1910089105), w_t(-0.333332926), w_t(0.09930995852), w_t(0.1413296461), w_t(0.05510516837), w_t(-0.3411110938), w_t(0.2395574749), w_t(-0.08695232868), w_t(-0.1762059182), w_t(-0.2555190921), w_t(0.02607743815), w_t(-0.0496757254), w_t(-0.2890481353), w_t(0.5199820995), w_t(-0.06323993206), w_t(-0.0958392024), w_t(0.02994794585), w_t(-0.06875215471), w_t(0.1351987273), w_t(0.2870865166), w_t(-0.1867430955), w_t(-0.5000936985), w_t(-0.08328032494), w_t(-0.3234018087), w_t(0.1893868595), w_t(0.1676992178), w_t(-0.2745688558), w_t(-0.2488376647), w_t(-0.4379833639), w_t(0.1249251515), w_t(0.2996431291), w_t(0.1348594278), w_t(-0.6234198213), w_t(-0.2952573001), w_t(-0.2511662245), w_t(0.2124989778), w_t(0.4592434168), w_t(0.6377213001), w_t(-0.2649054229), w_t(-0.537879765), w_t(0.3435473442), w_t(-0.8296086192), w_t(-0.1598826349), w_t(-0.1047645062), w_t(0.428909421), w_t(0.6906278729), w_t(0.08665718883), w_t(0.3390820324), w_t(0.2403693646), w_t(0.008125802502), w_t(0.6374483705), w_t(1.016019821), w_t(1.06651783), w_t(-0.08578496426), w_t(-0.06287486106), w_t(0.09048362821), w_t(-0.2713079154), w_t(-0.1840727925), w_t(-0.5800474882), w_t(-0.5703439713), w_t(-0.3964706361), w_t(-0.6195179224), w_t(-0.3902458549), w_t(-0.07383193821), w_t(-0.1965185106), w_t(-0.08487331867), w_t(0.06973920017), w_t(-0.7871752381), w_t(-0.6232329607), w_t(0.008034260944), w_t(-0.999183476), w_t(0.09081438184), w_t(0.1565525234), w_t(0.2354276776), w_t(0.0876345709), w_t(0.3597048223), w_t(0.4091702402), w_t(-0.1731313914), w_t(0.4076489508), w_t(0.03036929481), w_t(-0.2037995905), w_t(-0.02002542466), w_t(0.3285648227), w_t(-0.5349994898), w_t(-0.4941930771), w_t(0.1575171947), w_t(-0.6176738143), w_t(-0.1392568201), w_t(0.3229368627), w_t(-0.4370503128), w_t(-0.508866787), w_t(-0.1741450876), w_t(-0.01721586473), w_t(-0.07513678074), w_t(-0.8444117308), w_t(0.01152757648), w_t(0.2161245495), w_t(-1.254281759), w_t(0.6141508222), w_t(0.399794668), w_t(-0.2286214232), w_t(0.3746164441), w_t(0.6445648074), w_t(0.5231083035), w_t(-0.3252817094), w_t(-0.3149157166), w_t(-0.3856991827), w_t(0.1714913845), w_t(0.3666523695), w_t(-0.0158707276), w_t(0.2064694613), w_t(0.3289418221), w_t(0.5071113706), w_t(0.315618813), w_t(0.8654037714), w_t(0.6599767804), w_t(0.2899923027), w_t(-0.3112294376), w_t(-0.3432125449), w_t(-0.1903325766), w_t(0.003031317377), w_t(-0.7781060934), w_t(-0.4798329473), w_t(-0.3678916097), w_t(-0.6649417877), w_t(-0.1988121122), w_t(-0.1948916316), w_t(-0.2514561713), w_t(0.6321774125), w_t(0.393581301), w_t(0.4535338581), w_t(0.6578682065), w_t(0.9973181486), w_t(1.201058865), w_t(-0.2361216992), w_t(0.456083715), w_t(1.030510068), w_t(0.03166020662), w_t(-0.2297180593), w_t(0.05930232257), w_t(-0.3853007257), w_t(-0.5772771835), w_t(-0.4350294769), w_t(-0.184856832), w_t(0.2312147617), w_t(0.002419283614), w_t(-0.1415505409), w_t(0.1729023904), w_t(-0.5004791617), w_t(-0.0686673373), w_t(0.1373094618), w_t(0.09559520334), w_t(-0.1530655921), w_t(-0.2044768631), w_t(-0.05641324073), w_t(0.08608629555), w_t(-0.5442940593), w_t(-0.4730197787), w_t(0.2015369684), w_t(0.004123374354), w_t(-0.333472997), w_t(0.5122472644), w_t(-0.1171755791), w_t(-0.3378042877), w_t(-0.1720004231), w_t(-0.3608096838), w_t(-0.2891359925), w_t(-0.2866336703), w_t(-0.352534622), w_t(-0.1728284359), w_t(0.2235486805), w_t(0.9513583183), w_t(0.2560490072), w_t(0.9700458646), w_t(1.074079633), w_t(0.8134756088), w_t(0.8353779316), w_t(0.4486498535), w_t(0.4212165475), w_t(-0.2529108226), w_t(-0.03824869171), w_t(-0.1893738657), w_t(0.38081792), w_t(0.2221350968), w_t(-0.2424943596), w_t(0.5757541656), w_t(-0.01976404712), w_t(0.3918973804), w_t(-0.4474348128), w_t(0.4507031739), w_t(0.5049527287), w_t(-0.07738374174), w_t(0.1759575158), w_t(0.1939243227), w_t(-0.2934273779), w_t(0.4143805206), w_t(-0.2901974022), w_t(-0.6551440954), w_t(0.3988619745), w_t(0.314833492), w_t(0.5517879725), w_t(0.2513921261), w_t(0.6724253297), w_t(0.8941569328), w_t(0.01542791352), w_t(0.6858264208), w_t(-0.1439824402), w_t(0.009879603051), w_t(-0.2228287756), w_t(-0.3733661175), w_t(0.1459708363), w_t(0.4811071754), w_t(0.4627138674), w_t(0.1964773983), w_t(0.6599470973), w_t(-0.3220863342), w_t(0.2513051033), w_t(0.6065714359), w_t(0.5589709878), w_t(0.8688596487), w_t(0.5356190205), w_t(0.3749365509), w_t(0.02006454393), w_t(-0.223008737), w_t(-0.1522808969), w_t(-0.1156894937), w_t(-0.009964452125), w_t(-0.7717391849), w_t(-0.2666498423), w_t(-0.1020376235), w_t(-0.3393504322), w_t(-0.368604362), w_t(-0.2878828943), w_t(0.2021440715), w_t(-0.4794692993), w_t(-1.002244949), w_t(0.3123910129), w_t(0.451782912), w_t(-0.31959939), w_t(0.7709591389), w_t(1.35219717), w_t(1.349650383), w_t(-0.2301549911), w_t(-0.01307598129), w_t(0.5932278633), w_t(1.027336955), w_t(0.7447625399), w_t(0.5125898123), w_t(0.1504808813), w_t(0.02633605711), w_t(-0.1348416805), w_t(-0.5583714843), w_t(-0.4267472327), w_t(-0.1793236881), w_t(0.01640963554), w_t(0.03663089499), w_t(-0.3830454648), w_t(-0.1276146919), w_t(-0.1266956925), w_t(0.2315854132), w_t(0.0525071919), w_t(-0.7186197042), w_t(-0.2846644223), w_t(-0.1775315553), w_t(0.1716898233), w_t(0.3728917241), w_t(-0.090814583), w_t(0.3021158874), w_t(0.02819241025), w_t(-0.6070413589), w_t(-0.4848747849), w_t(-0.6955997348), w_t(-0.5350892544), w_t(0.1053725556), w_t(-0.9040341377), w_t(0.2609604001), w_t(0.3180643618), w_t(0.6865103245), w_t(0.08825814724), w_t(0.3414875269), w_t(0.2212810218), w_t(0.1947647333), w_t(0.328477174), w_t(0.2724064589), w_t(-0.5939820409), w_t(-0.769339025), w_t(-0.5736578703), w_t(-0.2559065521), w_t(0.1310185492), w_t(-0.1803112328), w_t(-0.2384436131), w_t(0.01397217531), w_t(0.1787078083), w_t(0.06954430044), w_t(-0.09418143332), w_t(0.2182219476), w_t(0.2464422435), w_t(0.02341159433), w_t(0.03535072133), w_t(0.8027319908), w_t(0.7908204198), w_t(0.9059774876), w_t(0.8439748883), w_t(0.7248125076), w_t(1.002872705), w_t(-0.1108608693), w_t(-0.0008741892525), w_t(-0.3396321237), w_t(0.05324017629), w_t(0.2280112505), w_t(-0.1835840195), w_t(0.07835363597), w_t(-0.1127279699), w_t(-0.1599725634), w_t(0.1473766118), w_t(0.1286750138), w_t(0.09573124349), w_t(-0.2972207367), w_t(-0.23073937), w_t(-0.9588959813), w_t(-0.1043665409), w_t(-0.315700829), w_t(-0.9828500748), w_t(0.5497260094), w_t(0.0104630813), w_t(0.06507980824), w_t(0.2081322372), w_t(-0.07082066685), w_t(-0.2185517699), w_t(0.5419123173), w_t(0.01533512212), w_t(-0.1702428311), w_t(0.2040041834), w_t(0.286965996), w_t(0.3589418232), w_t(0.2893245816), w_t(0.3447346389), w_t(0.2264799923), w_t(-0.5522810221), w_t(-0.5866866112), w_t(-0.04971588403), w_t(0.3635343611), w_t(-0.1822564155), w_t(0.05822372809), w_t(-0.03281576559), w_t(-0.1320540756), w_t(-0.7492085099), w_t(-0.2622211874), w_t(0.2143838555), w_t(-0.4186968207), w_t(-0.4950214326), w_t(-0.2534165978), w_t(-0.2702506185), w_t(-0.3661930561), w_t(-0.2982476354), w_t(-0.7082943916), w_t(-0.002377818339), w_t(0.4721274972), w_t(0.1232645735), w_t(0.3114696443), w_t(0.5724223256), w_t(-0.1333325356), w_t(0.3618506491), w_t(0.1097305715), w_t(-0.3876539469), w_t(0.2470461726), w_t(-0.5609611273), w_t(-1.164486408), w_t(-0.6180864573), w_t(-0.1230036095), w_t(0.05538556725), w_t(0.01549851988), w_t(0.4291046858), w_t(0.2677566707), w_t(0.5088453889), w_t(0.3461583853), w_t(0.1842241287), w_t(-0.1986670196), w_t(-0.4140345156), w_t(-0.414827913), w_t(0.4899320006), w_t(-0.10878364), w_t(0.03877281025), w_t(0.8834916353), w_t(0.8626776338), w_t(0.540030241), w_t(0.5759497881), w_t(0.1070945114), w_t(-0.1719556302), w_t(-0.2230076045), w_t(-0.4172518253), w_t(-0.8359578252), w_t(-0.7471356392), w_t(-0.8502457142), w_t(-1.208549023), w_t(0.1943277121), w_t(0.2112491727), w_t(0.06693608314), w_t(0.8782452941), w_t(1.01472044), w_t(0.6711555123), w_t(0.0939937681), w_t(0.4191262126), w_t(0.5252609253), w_t(0.4401592016), w_t(-0.302857101), w_t(-0.2314494699), w_t(0.2612144053), w_t(0.2216520011), w_t(0.1742426306), w_t(0.6740444303), w_t(0.3582331836), w_t(0.3015077114), w_t(-0.9088167548), w_t(-0.4506101906), w_t(-0.01663408242), w_t(0.1696527153), w_t(0.4917125106), w_t(1.000680089), w_t(0.007499075495), w_t(0.9854112267), w_t(1.315715671), w_t(0.5362613797), w_t(-0.6124531031), w_t(-1.603495717), w_t(-0.2147996873), w_t(-1.630513787), w_t(-2.083420277), w_t(-0.1365558207), w_t(0.2271548063), w_t(-0.6289447546), w_t(-0.1817794591), w_t(-0.2290353328), w_t(-0.08007442951), w_t(-0.1020173952), w_t(-0.02744763158), w_t(-0.07268097997), w_t(-0.1051488817), w_t(-0.2130139172), w_t(-0.04143018275), w_t(-0.1230442226), w_t(0.09909121692), w_t(0.7638066411), w_t(0.1377395391), w_t(-0.03780255839), w_t(0.355012089), w_t(0.3265227079), w_t(0.2795388997), w_t(0.1379200518), w_t(0.4563873708), w_t(0.3692705929), w_t(-0.1284725219), w_t(0.1906873137), w_t(-0.1126886383), w_t(-0.04322298616), w_t(0.693641603), w_t(0.3820335567), w_t(1.220518827), w_t(-0.3447035551), w_t(-0.6229508519), w_t(-0.7597179413), w_t(-0.504106164), w_t(-0.7574181557), w_t(-0.7320616245), w_t(-0.8922024369), w_t(-0.6280119419), w_t(-0.3801326752), w_t(0.5744500756), w_t(0.58661443), w_t(0.6647562385), w_t(0.1942409128), w_t(0.08339566737), w_t(-0.2310376465), w_t(0.2816025913), w_t(-0.05528089032), w_t(-0.3212808967), w_t(0.5103979111), w_t(-0.1912586838), w_t(-0.6361556649), w_t(-0.1369104981), w_t(-0.3502652347), w_t(-0.503390789), w_t(0.204645589), w_t(0.2731668353), w_t(0.4073652923), w_t(-0.02445031703), w_t(0.3233048916), w_t(0.0771587044), w_t(-0.2004608065), w_t(-0.1392997652), w_t(-0.6510252357), w_t(-0.5007964969), w_t(-0.6447463632), w_t(-0.08755030483), w_t(-0.9034749269), w_t(-0.1366917193), w_t(-0.1195433661), w_t(-0.1343585104), w_t(0.2946752906), w_t(0.1668406129), w_t(0.4388356209), w_t(-0.2818835378), w_t(-0.2367200553), w_t(0.01236928534), w_t(0.1367726624), w_t(-0.9759712815), w_t(-0.1319115013), w_t(-0.7889671922), w_t(-1.110352159), w_t(-0.4386749864), w_t(0.13951841), w_t(0.775793314), w_t(0.2520243824), w_t(0.1954353303), w_t(0.4380855858), w_t(0.7337402105), w_t(0.3538857102), w_t(0.4095555842), w_t(0.7884984612), w_t(0.002080345294), w_t(0.233755812), w_t(-0.6058603525), w_t(0.2214842588), w_t(1.275863171), w_t(-0.1042323411), w_t(0.3036142588), w_t(0.8979596496), w_t(-0.1034580246), w_t(-0.3782340288), w_t(-0.4833298326), w_t(0.4362833798), w_t(-0.3892795146), w_t(-0.06578171253), w_t(-0.9554625154), w_t(0.06506302953), w_t(0.1318812966), w_t(-0.4645124078), w_t(-0.6629152894), w_t(-0.6947290897), w_t(0.2219176441), w_t(0.3536361158), w_t(0.2058349699), w_t(-0.1277686208), w_t(0.1102432907), w_t(0.2134235203), w_t(0.2955896854), w_t(0.08045078814), w_t(0.04445896298), w_t(-0.6252475381), w_t(-0.4202614725), w_t(0.3795205057), w_t(-0.07652095705), w_t(0.4306994379), w_t(0.7914072275), w_t(1.156111717), w_t(0.633213222), w_t(0.0311554689), w_t(-0.1671191603), w_t(-0.3029955029), w_t(0.4646857977), w_t(0.1438767761), w_t(-0.1108487844), w_t(-0.3610123694), w_t(0.3332322538), w_t(0.6624604464), w_t(0.03024591319), w_t(-0.6498390436), w_t(-0.1818117201), w_t(0.4657806754), w_t(-0.09003265947), w_t(-0.1767540723), w_t(1.218454838), w_t(0.2609343231), w_t(0.01348343305), w_t(0.2844564021), w_t(-0.1033928692), w_t(-0.1334110498), w_t(-0.1349149048), w_t(0.1059068367), w_t(0.02626860887), w_t(0.05509356037), w_t(-0.3565452695), w_t(-0.1008106321), w_t(-0.1427562088), w_t(-0.06650792062), w_t(0.03579199687), w_t(0.173649773), w_t(-0.0812747851), w_t(0.01072642487), w_t(-0.02108109184), w_t(0.0001428143005), w_t(0.250331521), w_t(0.2550537884), w_t(0.1148685738), w_t(-0.02711354755), w_t(0.134619087), w_t(-0.3235185146), w_t(-0.3480938077), w_t(-0.1194728985), w_t(-0.9458267689), w_t(-0.4312463403), w_t(-0.3561709821), w_t(0.374078095), w_t(0.1293276548), w_t(0.01024382841), w_t(0.4313999712), w_t(0.4887247086), w_t(0.5507749915), w_t(0.4792026281), w_t(0.4250184596), w_t(0.3240513802), w_t(0.4140985012), w_t(0.3506307304), w_t(0.6854592562), w_t(-0.09079399705), w_t(-0.0143508995), w_t(0.5061017275), w_t(0.06605076045), w_t(0.01340072416), w_t(0.2597895265), w_t(-0.3471324444), w_t(0.1907721758), w_t(0.03724168986), w_t(-0.0654463917), w_t(0.06181233004), w_t(-0.11866308), w_t(-0.5544538498), w_t(-0.2548696399), w_t(0.1458207369), w_t(-0.2208557576), w_t(-0.0972032249), w_t(-0.08621279895), w_t(0.4613336027), w_t(0.09361945838), w_t(0.4028832018), w_t(0.5587883592), w_t(-0.01937093586), w_t(0.2898352146), w_t(0.1101574376), w_t(-0.0007391506224), w_t(-0.1281356364), w_t(-0.1581236273), w_t(0.08688793331), w_t(0.4175431728), w_t(-0.07970062643), w_t(-0.01585186273), w_t(-0.1720569879), w_t(0.2243138999), w_t(0.2276519239), w_t(0.1398983151), w_t(0.2761088014), w_t(0.6142146587), w_t(0.6791332364), w_t(0.04211379588), w_t(0.2155844867), w_t(0.4998630285), w_t(0.08046104014), w_t(0.1399485618), w_t(0.5920078158), w_t(-0.2027441859), w_t(0.007825575769), w_t(0.6424573064), w_t(-0.5370540619), w_t(-0.1455630064), w_t(0.2326880097), w_t(0.1019689962), w_t(0.1838352978), w_t(0.3120176494), w_t(-0.09735366702), w_t(-0.4636135101), w_t(-0.2464819998), w_t(-0.1960980594), w_t(-0.196572423), w_t(-0.1579854339), w_t(0.5043582916), w_t(0.4612850547), w_t(0.1209929213), w_t(1.174402356), w_t(0.6704134941), w_t(1.455994368), w_t(1.30266428), w_t(1.088619947), w_t(1.380379677), w_t(-0.2723287344), w_t(-0.1094332114), w_t(-0.1572335809), w_t(-0.43560341), w_t(-0.6111162901), w_t(-0.1910786331), w_t(-0.4153620899), w_t(-0.07137435675), w_t(0.2209895849), w_t(0.2659266889), w_t(0.245943889), w_t(0.1547481269), w_t(-0.3663878143), w_t(-0.1797151417), w_t(-0.8639826179), w_t(0.4050984383), w_t(0.1617329568), w_t(-0.4172511399), w_t(-0.1834274083), w_t(-0.18694067), w_t(-0.1058635488), w_t(-0.2145361453), w_t(-0.3221962154), w_t(-0.7472254038), w_t(-0.4907631278), w_t(-0.5018420815), w_t(-0.4736839831), w_t(-0.07852577418), w_t(0.7352852225), w_t(-0.09208743274), w_t(0.887131989), w_t(0.5604105592), w_t(0.2537205815), w_t(0.02384250611), w_t(0.2270963937), w_t(0.3601371944), w_t(-0.01787989028), w_t(0.1854839474), w_t(0.06919950992), w_t(-0.4149813354), w_t(-0.3450042307), w_t(-0.2515822947), w_t(-0.2281569242), w_t(-0.2983040214), w_t(-0.3002364933), w_t(0.08984991163), w_t(0.2262362838), w_t(-0.139319405), w_t(0.444108665), w_t(0.01581425779), w_t(-0.1001256332), w_t(0.2558872402), w_t(0.04001907632), w_t(-0.3993065357), w_t(0.5773069859), w_t(0.4323578477), w_t(0.4951508939), w_t(0.641083777), w_t(0.2966654301), w_t(0.2071262598), w_t(0.5779772401), w_t(-0.1236489862), w_t(0.3682876527), w_t(-0.3055081367), w_t(-0.2454019934), w_t(-0.2052452713), w_t(-0.618011117), w_t(-0.02339289151), w_t(0.6885564327), w_t(-0.06420529634), w_t(0.7594044209), w_t(0.9776484966), w_t(-0.01505434234), w_t(-0.2058103383), w_t(-0.07212879509), w_t(0.2756488621), w_t(0.5731933713), w_t(0.7857699394), w_t(0.5715546012), w_t(0.5752338171), w_t(0.07233797014), w_t(0.08193350583), w_t(0.09071668983), w_t(-0.1241723895), w_t(1.148714542), w_t(0.0161362458), w_t(0.1329980046), w_t(0.1145604029), w_t(0.218885079), w_t(0.4970709682), w_t(-0.9302754998), w_t(0.04274282977), w_t(0.02826978825), w_t(-0.3009403944), w_t(-0.2412235141), w_t(0.4103622437), w_t(-0.1826322526), w_t(0.161961779), w_t(0.1117169037), w_t(-0.6262275577), w_t(-0.6199532747), w_t(-0.3866420984), w_t(-1.309745789), w_t(-0.3681392372), w_t(0.0516009815), w_t(-0.4514015019), w_t(-0.1168774366), w_t(0.1807819307), w_t(-0.09807728231), w_t(0.4306152463), w_t(0.7372370362), w_t(0.9319426417), w_t(0.8719496131), w_t(1.145351768), w_t(0.3029790819), w_t(0.574627161), w_t(1.816132069), w_t(0.1447455436), w_t(-0.3464078605), w_t(-0.1484542936), w_t(0.1904162467), w_t(-0.1698006243), w_t(0.1182590127), w_t(0.1774046421), w_t(0.1871030331), w_t(-0.07263000309), w_t(-0.452894628), w_t(0.02272909507), w_t(0.01292017195), w_t(-0.8561326861), w_t(-0.286438942), w_t(-0.4548749328), w_t(-0.5296267271), w_t(0.496869415), w_t(-0.1780504137), w_t(-0.7753717303), w_t(-0.04694949463), w_t(0.01231294498), w_t(0.6729807854), w_t(0.3412485719), w_t(0.08723826706), w_t(0.4362744093), w_t(0.1401932538), w_t(0.5896407962), w_t(0.06629961729), w_t(-0.4399392307), w_t(-0.09136077017), w_t(0.3005878031), w_t(-0.02378587238), w_t(-0.0891783312), w_t(-0.2157928348), w_t(-0.2613517642), w_t(-0.2797020376), w_t(-0.2860174775), w_t(0.02832175978), w_t(-0.08187064528), w_t(-0.5431204438), w_t(-0.4003812075), w_t(-0.7017992735), w_t(-0.7001829743), w_t(-0.01134258695), w_t(-0.4386960566), w_t(-0.1299834549), w_t(-0.1754757762), w_t(0.01466289628), w_t(-0.05471304059), w_t(-0.2424401939), w_t(-0.4644168317), w_t(-0.251080215), w_t(0.167788893), w_t(-0.6146821976), w_t(0.3786004186), w_t(0.3268635869), w_t(1.477874398), w_t(0.5990363955), w_t(1.067492247), w_t(1.357496023), w_t(0.03413200378), w_t(0.99866575), w_t(-0.2858704627), w_t(-0.1529625654), w_t(-0.04660103098), w_t(-0.1407698691), w_t(-0.1017975658), w_t(-0.005258955527), w_t(-0.2114311159), w_t(0.1714272797), w_t(0.0957756266), w_t(-0.3180814385), w_t(-0.3747601211), w_t(-0.5126975179), w_t(0.2857929766), w_t(-0.04138689116), w_t(-0.9517104626), w_t(-0.03305716813), w_t(0.04456668347), w_t(-0.319658339), w_t(-0.6027388573), w_t(0.4345588386), w_t(0.2430073172), w_t(0.5878003836), w_t(0.1307162046), w_t(0.2395476997), w_t(0.5353016257), w_t(0.4369828403), w_t(0.3134602308), w_t(0.1717090011), w_t(-0.4886361063), w_t(0.1813575476), w_t(-0.3256548941), w_t(0.1255369037), w_t(0.2233808935), w_t(-0.03375764564), w_t(0.4107235074), w_t(-0.05347087234), w_t(0.1217863262), w_t(-0.4132225215), w_t(-0.2185447961), w_t(0.5107067823), w_t(-0.1782429963), w_t(0.2584157586), w_t(0.1882853955), w_t(1.02567482), w_t(0.09032110125), w_t(-0.3168483973), w_t(0.5516743064), w_t(0.3689173758), w_t(0.2971969247), w_t(0.6141180992), w_t(0.7802037597), w_t(-0.07988095284), w_t(1.231221199), w_t(0.6143625975), w_t(0.2722419202), w_t(-0.5319460034), w_t(-0.1977361441), w_t(0.3731380105), w_t(-0.1600450128), w_t(-0.2924798131), w_t(-0.02954458073), w_t(0.01647269353), w_t(-0.2379258871), w_t(-0.2176370472), w_t(-0.6171623468), w_t(-0.9476960301), w_t(-0.4047508538), w_t(-0.5376673937), w_t(-1.710247636), w_t(-0.0005458251107), w_t(-0.3792812824), w_t(-0.8041134477), w_t(-0.1857034117), w_t(0.7136662602), w_t(0.9169194698), w_t(0.8361589909), w_t(0.8069996834), w_t(0.5394322276), w_t(0.06317371875), w_t(0.7376235723), w_t(0.02433671057), w_t(-0.6680188775), w_t(-0.1933541745), w_t(-0.2339826822), w_t(0.07564787567), w_t(-0.3447608352), w_t(-0.3633477986), w_t(-0.286765784), w_t(0.05985504389), w_t(0.0724709481), w_t(-0.4833621979), w_t(-1.002445221), w_t(-1.534600616), w_t(0.07878778875), w_t(-0.4724857211), w_t(-1.99394834), w_t(0.266621083), w_t(0.1068386137), w_t(-0.6263579726), w_t(0.2672588229), w_t(0.2222705334), w_t(0.1977365464), w_t(0.9688199162), w_t(0.1045399085), w_t(0.3019471169), w_t(1.311042786), w_t(-0.9961479902), w_t(-0.265190661), w_t(0.3194765747), w_t(0.05508244038), w_t(0.1989852935), w_t(0.251390636), w_t(0.3106325865), w_t(0.1969222724), w_t(0.1340212524), w_t(0.7873718143), w_t(0.2881666422), w_t(0.05943776667), w_t(-0.430047363), w_t(-0.553041935), w_t(-0.3393957019), w_t(-0.8827362061), w_t(-0.8779865503), w_t(-0.4139357209), w_t(0.08274467289), w_t(-0.288030684), w_t(0.2217623889), w_t(0.03415855765), w_t(0.1631151885), w_t(0.3686871231), w_t(0.7431154251), w_t(0.3201781213), w_t(0.3221277297), w_t(1.182480574), w_t(0.2457061112), w_t(-0.4958853126), w_t(-0.2411565632), w_t(-0.5563602448), w_t(-0.4802052379), w_t(-0.2462939471), w_t(-0.4023968577), w_t(0.6294565797), w_t(-0.2064689249), w_t(-0.3647098541), w_t(0.4804830849), w_t(-0.003850355744), w_t(-0.03788515553), w_t(0.08223365247), w_t(-0.03257922828), w_t(0.01043725479), w_t(-0.08329007775), w_t(-0.2709217668), w_t(-0.211520195), w_t(-0.1340206563), w_t(0.6235336065), w_t(0.5105707645), w_t(0.5218635201), w_t(0.1126046106), w_t(0.4191813767), w_t(0.1616451591), w_t(0.09092998505), w_t(0.2256575525), w_t(0.3775615692), w_t(0.3655533493), w_t(0.001213338808), w_t(0.3515258431), w_t(-0.009511645883), w_t(-0.101631552), w_t(-0.2112329304), w_t(-0.702748239), w_t(-0.3652947843), w_t(-0.3444734216), w_t(0.1448628753), w_t(0.2268740088), w_t(0.1261669397), w_t(0.007802315056), w_t(-0.01329426095), w_t(0.03464188427), w_t(0.4107756019), w_t(0.5848555565), w_t(0.6720045805), w_t(0.6540884972), w_t(0.3439435959), w_t(0.3234241903), w_t(0.512188375), w_t(0.1942871213), w_t(0.6166414618), w_t(0.4482669532), w_t(0.5568905473), w_t(0.5534000397), w_t(-0.4554360807), w_t(-0.0258855857), w_t(0.09333365411), w_t(-0.4744250178), w_t(-0.07187446952), w_t(-0.2782508135), w_t(-0.9744764566), w_t(-0.6361669898), w_t(0.005243253894), w_t(0.1746713519), w_t(-0.1095265597), w_t(-0.1546027809), w_t(0.4609137774), w_t(-0.0154256383), w_t(0.3427513242), w_t(0.6311212778), w_t(0.1786172092), w_t(0.3074523509), w_t(-0.1961713135), w_t(-0.07691839337), w_t(-0.07605320215), w_t(-0.3991522789), w_t(0.1478211135), w_t(0.4030581117), w_t(-0.05847840384), w_t(-0.3172664046), w_t(0.02610383183), w_t(0.1856793165), w_t(0.254804194), w_t(0.4848444164), w_t(0.4602713585), w_t(0.3110767007), w_t(0.2704367638), w_t(0.09261661023), w_t(-0.06881563365), w_t(0.4149428904), w_t(0.1076492593), w_t(0.4746744335), w_t(0.4068146944), w_t(-0.02043824457), w_t(0.1549960226), w_t(0.5839427114), w_t(-0.03461210057), w_t(0.3039426208), w_t(-0.02949432097), w_t(0.1150082871), w_t(-0.05950588733), w_t(0.2632644773), w_t(-0.04199266061), w_t(-0.04622126371), w_t(0.4158187509), w_t(-0.001373406965), w_t(-0.3048005104), w_t(0.0322679244), w_t(-0.1946945041), w_t(-0.2738385797), w_t(-0.4801756144), w_t(0.9891840219), w_t(0.007616785355), w_t(0.3452613056), w_t(0.9070463181), w_t(0.3113948405), w_t(1.830105543), w_t(-0.09562981129), w_t(0.1284999549), w_t(-0.1651490033), w_t(-0.3063999414), w_t(-0.1567694545), w_t(-0.03986151516), w_t(-0.3385646641), w_t(-0.2466070056), w_t(0.1755837202), w_t(0.3055261374), w_t(0.04146119207), w_t(0.05430208519), w_t(-0.1665451378), w_t(-0.1701830775), w_t(-0.4201174676), w_t(0.4519342184), w_t(0.4259444177), w_t(-0.02168658935), w_t(-0.3566531241), w_t(0.04048948735), w_t(-0.2126632631), w_t(-0.3989809453), w_t(-0.2719947994), w_t(0.02237756364), w_t(-0.6517964005), w_t(-0.9896869063), w_t(-1.298921227), w_t(-0.7708265781), w_t(0.02513112314), w_t(0.1863874793), w_t(-0.05018269271), w_t(0.296153903), w_t(1.334878206), w_t(-0.2152792215), w_t(0.4179912508), w_t(-1.34667778), w_t(-0.2120635957), w_t(-0.4035985768), w_t(-0.3575832546), w_t(0.4071555734), w_t(-0.02295472659), w_t(0.000313622877), w_t(0.07584058493), w_t(0.04408472404), w_t(-0.08056279272), w_t(0.612496078), w_t(0.205944106), w_t(-0.2046390921), w_t(0.04676390439), w_t(0.1127804667), w_t(0.5071879029), w_t(-0.2066074163), w_t(0.2503985763), w_t(-0.0439784117), w_t(-0.04862446338), w_t(-0.06842429936), w_t(-0.3231127262), w_t(-0.5624628663), w_t(-0.4268367887), w_t(-0.09932339191), w_t(-1.037222147), w_t(-1.226917744), w_t(-1.25179708), w_t(0.1556381136), w_t(0.08146294951), w_t(0.02076710761), w_t(0.3572352231), w_t(0.09778696299), w_t(0.4116594195), w_t(0.3884493411), w_t(0.6093656421), w_t(0.3098250628), w_t(0.4639005363), w_t(0.2651502788), w_t(0.5332698822), w_t(0.2518578172), w_t(-0.2008025348), w_t(-0.1000216827), w_t(-0.1924815774), w_t(-0.09334629029), w_t(-0.08623286337), w_t(0.2997480631), w_t(0.625828743), w_t(0.6006492972), w_t(-0.2278161943), w_t(0.2111484259), w_t(-0.429032892), w_t(-0.6057475805), w_t(-0.606767416), w_t(-0.504958272), w_t(0.1363639235), w_t(-0.3428022265), w_t(0.0514229238), w_t(0.5072681308), w_t(0.1444056928), w_t(0.2710078657), w_t(0.3274190426), w_t(0.227598995), w_t(0.2660753727), w_t(-0.583532095), w_t(-0.3781913817), w_t(0.01214146987), w_t(-0.2453595996), w_t(-0.2926765084), w_t(0.2328369319), w_t(-0.03066906519), w_t(0.1765633374), w_t(0.05465026572), w_t(0.7238606215), w_t(0.2624110878), w_t(0.408583492), w_t(0.3643652201), w_t(0.2810826898), w_t(0.2040697634), w_t(0.03244391829), w_t(-0.4847638309), w_t(-0.5313990116), w_t(0.5130752325), w_t(0.3281232417), w_t(0.4748590291), w_t(-0.06609173864), w_t(-0.3397310674), w_t(0.1896000504), w_t(-0.7012632489), w_t(-0.3802116215), w_t(-0.4102636576), w_t(0.005804670975), w_t(-0.3668285012), w_t(0.1332047284), w_t(0.1556294262), w_t(-0.03155646473), w_t(0.2819821835), w_t(-0.05743459985), w_t(0.5060135126), w_t(0.3943300843), w_t(0.3266907334), w_t(0.3588894308), w_t(0.3793565333), w_t(0.800172627), w_t(0.3545708358), w_t(1.546377778), w_t(0.6468214989), w_t(1.457301021), w_t(1.191316843), w_t(0.3293705881), w_t(-0.1678212434), w_t(0.3763404787), w_t(-0.5408133864), w_t(-0.1026350185), w_t(0.08893480152), w_t(-0.3952325881), w_t(-0.2256143987), w_t(-0.4677422643), w_t(0.03527623415), w_t(0.1456957757), w_t(-0.04818958417), w_t(0.2268262058), w_t(0.09244126827), w_t(-0.3683816493), w_t(-0.1649173498), w_t(0.5762950778), w_t(1.121920347), w_t(0.2535422742), w_t(0.1375073493), w_t(-0.3002205491), w_t(-0.01294256374), w_t(-0.1157431081), w_t(-0.1862923205), w_t(0.1655308455), w_t(-0.1746934503), w_t(-0.7401910424), w_t(-0.2828225791), w_t(0.2316827178), w_t(0.226396963), w_t(0.2112776637), w_t(0.2953560352), w_t(0.5292790532), w_t(-0.4413329065), w_t(-0.6309282184), w_t(-0.5596613884), w_t(0.1880268008), w_t(0.1078272983), w_t(-0.07664994895), w_t(0.03814919665), w_t(-0.08954107016), w_t(-0.225260362), w_t(-0.2156475037), w_t(-0.06695113331), w_t(-0.133998245), w_t(0.162362501), w_t(0.5607061386), w_t(0.337434113), w_t(0.4394684732), w_t(0.4913002551), w_t(0.4110389352), w_t(0.06859647483), w_t(0.1580105126), w_t(0.2846565545), w_t(-0.2068264186), w_t(0.03754156083), w_t(0.3721987605), w_t(0.07932075858), w_t(0.1121099144), w_t(0.3903372288), w_t(0.4672750831), w_t(0.08373760432), w_t(-0.4163174033), w_t(-0.002199682407), w_t(-0.3268747628), w_t(0.05261877924), w_t(-0.05093130842), w_t(0.2155727595), w_t(0.4659539759), w_t(0.379034251), w_t(0.3727236986), w_t(1.476751089), w_t(-0.01459248643), w_t(-0.2360731661), w_t(-0.2897309363), w_t(0.04516924173), w_t(0.04954258725), w_t(0.2645163238), w_t(0.8868125677), w_t(0.5902810693), w_t(0.8110620379), w_t(-0.5030233264), w_t(0.06844267249), w_t(0.5957140923), w_t(-0.1612691432), w_t(0.03323727101), w_t(0.1094443351), w_t(-0.2700814605), w_t(0.2045336068), w_t(-0.74743402), w_t(-0.3841505051), w_t(-0.03512971476), w_t(-0.5375837088), w_t(-0.4773262143), w_t(-0.20188272), w_t(0.5777364373), w_t(0.02804363146), w_t(0.5606687069), w_t(1.196639776), w_t(0.1456839889), w_t(-0.3025583029), w_t(-0.163447991), w_t(-0.3823167086), w_t(-0.2108372152), w_t(-0.06848961115), w_t(-0.2854422629), w_t(-0.1538942903), w_t(0.8377779722), w_t(-0.4399661422), w_t(0.0005183186731), w_t(0.1869061291), w_t(0.2097583115), w_t(0.5205612779), w_t(0.8580598235), w_t(0.6939786077), w_t(0.4957351387), w_t(0.3652915359), w_t(-0.2327198982), w_t(-0.3773490489), w_t(-0.2427526265), w_t(0.01646768674), w_t(-0.188703537), w_t(0.2113267034), w_t(-0.004725167062), w_t(-0.1095370799), w_t(-0.1084510535), w_t(-0.06480479985), w_t(-0.1231775209), w_t(-0.5167652965), w_t(0.02399931289), w_t(0.09077455103), w_t(0.478243202), w_t(0.200644359), w_t(1.021957159), w_t(1.513406515), w_t(-0.897153914), w_t(-0.344879657), w_t(-0.1099552214), w_t(-0.0398529619), w_t(0.3022238016), w_t(-0.1160733476), w_t(0.01971911825), w_t(0.2631081641), w_t(0.6335975528), w_t(0.02178979665), w_t(0.04132416472), w_t(0.09762214124), w_t(0.01407420915), w_t(0.2963069379), w_t(0.002149912762), w_t(-0.2367370576), w_t(-0.03445187584), w_t(0.02103973739), w_t(0.615899086), w_t(0.511690855), w_t(0.2470257431), w_t(0.3876182437), w_t(0.1242590174), w_t(0.002652770607), w_t(-0.6049919128), w_t(-0.3014842272), w_t(0.01598603465), w_t(0.4747677147), w_t(0.5486456156), w_t(-0.2785357535), w_t(0.01866117492), w_t(0.3427758217), w_t(-0.5471294522), w_t(-0.3226269484), w_t(-0.6130439639), w_t(-0.3156482875), w_t(-0.5486418009), w_t(0.07409764826), w_t(-0.1701316684), w_t(-0.08363753557), w_t(0.6778603792), w_t(-0.6410001516), w_t(0.2720297575), w_t(0.4449504018), w_t(-1.18634522), w_t(-0.3617556095), w_t(0.02277727239), w_t(-0.03089114837), w_t(-0.1721416861), w_t(0.1361029595), w_t(-0.2620710135), w_t(0.08761245012), w_t(0.2631036937), w_t(-0.04536632821), w_t(0.1768349409), w_t(-0.4691956937), w_t(-0.3363650143), w_t(-0.3469157815), w_t(-0.180933252), w_t(-0.5123825669), w_t(-0.600800097), w_t(-0.6034588814), w_t(-0.5924595594), w_t(-0.4171665311), w_t(-0.05542473122), w_t(-0.3548531532), w_t(-0.282538563), w_t(-0.4219454527), w_t(-0.7560344338), w_t(-0.5031200647), w_t(-0.8648391366), w_t(-0.9236671329), w_t(0.2614005506), w_t(0.03608148545), w_t(0.2315215766), w_t(0.8030708432), w_t(0.3139569163), w_t(0.3898479342), w_t(0.8546301723), w_t(0.6631326675), w_t(0.7309263945), w_t(0.4288760126), w_t(0.1236755103), w_t(0.01272336207), w_t(0.2546597719), w_t(-0.3664525747), w_t(-0.5153044462), w_t(-0.4629886746), w_t(-0.472841233), w_t(-0.777364552), w_t(-0.2151603997), w_t(0.3111491799), w_t(-0.08839689195), w_t(0.1251515597), w_t(0.1835788786), w_t(-0.2494639158), w_t(-0.9596810341), w_t(-0.2675696611), w_t(-0.4168117642), w_t(0.01100176666), w_t(0.09805201739), w_t(0.2982479632), w_t(0.04514478147), w_t(0.2159865201), w_t(-0.09342002869), w_t(-0.004013127182), w_t(0.1460008174), w_t(0.8254231215), w_t(-0.296959728), w_t(-0.222664535), w_t(0.03309540823), w_t(0.2523287535), w_t(0.4164039493), w_t(0.327899009), w_t(0.5192904472), w_t(0.7188588977), w_t(0.5025762916), w_t(0.2139905244), w_t(0.1617909968), w_t(-0.4389439821), w_t(0.469979465), w_t(-0.2405456305), w_t(-0.8719213605), w_t(-0.7120242715), w_t(-1.164194465), w_t(-0.6297086477), w_t(0.1980969161), w_t(0.1523414999), w_t(0.2865972221), w_t(0.4891920686), w_t(-0.2615802884), w_t(-0.3839804232), w_t(-0.494145751), w_t(-1.099301338), w_t(-0.6478433013), w_t(0.04669437185), w_t(0.3115184307), w_t(0.7241960764), w_t(0.1459338069), w_t(0.1864417195), w_t(-0.2422922552), w_t(-0.2738691568), w_t(0.6821917295), w_t(0.6749302745), w_t(-0.2653455138), w_t(0.4826554656), w_t(1.233897924), w_t(-0.1117141992), w_t(0.5236911178), w_t(0.4445783496), w_t(0.7228173018), w_t(1.235141158), w_t(0.7631517053), w_t(0.2832129598), w_t(-0.08678594232), w_t(0.1627054214), w_t(-0.3084903657), w_t(-0.2878044546), w_t(-0.1679201722), w_t(-0.8626533747), w_t(-0.5290977359), w_t(-0.919885695), w_t(-0.3128831089), w_t(0.1836162508), w_t(0.7177384496), w_t(0.9779472351), w_t(0.4912002981), w_t(0.9491226077), w_t(0.69112885), w_t(0.7443090677), w_t(1.465985298), w_t(0.3862155378), w_t(-0.02520086244), w_t(-0.3428045809), w_t(0.3430926204), w_t(0.488093257), w_t(-0.6089291573), w_t(0.07812101394), w_t(0.3796112239), w_t(-0.2049613595), w_t(0.5325899124), w_t(-0.02902831696), w_t(-0.1184641495), w_t(-0.1454960704), w_t(0.03359628469), w_t(-1.076321483), w_t(-0.6934190392), w_t(-0.5452352762), w_t(-0.9248774648), w_t(-0.2251400352), w_t(-0.1840859056), w_t(-0.2596660852), w_t(-0.1113790348), w_t(0.06822744757), w_t(0.3649402559), w_t(0.2145897448), w_t(0.3591476381), w_t(-0.1854450703), w_t(-0.008953870274), w_t(0.1322461069), w_t(-0.6581835747), w_t(0.4558931589), w_t(0.1077873483), w_t(0.5626581907), w_t(0.008224918507), w_t(0.1126180664), w_t(0.8317178488), w_t(-0.2676311135), w_t(-0.229531005), w_t(-0.5041091442), w_t(-0.4479834735), w_t(-0.3017469645), w_t(-0.4529004097), w_t(-0.5174876451), w_t(-0.5600112677), w_t(-0.1518766731), w_t(0.02661878057), w_t(-0.03324509785), w_t(-0.2286534458), w_t(0.6334930658), w_t(0.1038444415), w_t(-0.9104261994), w_t(0.07033079118), w_t(-0.6118203998), w_t(-0.9429574013), w_t(0.2893984914), w_t(-0.007580528036), w_t(0.3293640316), w_t(0.4427307546), w_t(0.2943967581), w_t(-0.5062369108), w_t(0.7340911031), w_t(-0.1357667744), w_t(-1.079957843), w_t(0.09180448949), w_t(0.06828103215), w_t(0.06434332579), w_t(-0.1328793168), w_t(0.1915565133), w_t(0.3830632269), w_t(-0.7185745239), w_t(-0.5390381217), w_t(0.210955739), w_t(-0.3453876972), w_t(0.2842570841), w_t(-0.1310974211), w_t(0.2994584143), w_t(-0.3659383059), w_t(-0.3370536864), w_t(0.3302059472), w_t(-0.1625574678), w_t(-0.4001099467), w_t(-0.3485325575), w_t(-0.3500961363), w_t(-0.4454464018), w_t(0.3181237578), w_t(-0.4427270591), w_t(-0.07185983658), w_t(0.4013128281), w_t(0.6785053611), w_t(0.4041702449), w_t(-0.3632474244), w_t(0.3833172321), w_t(-0.3852890432), w_t(0.4502387941), w_t(0.1921286881), w_t(-0.8543774486), w_t(-0.2805208564), w_t(-1.121033192), w_t(-1.142301917), w_t(-0.4181567729), w_t(-0.04136858881), w_t(-0.2282965332), w_t(-0.0695809871), w_t(-0.07972198725), w_t(-0.2112949938), w_t(0.4150418043), w_t(0.1766624451), w_t(-0.3197061121), w_t(0.3579093814), w_t(-0.08103439957), w_t(-0.2880496383), w_t(0.5260952115), w_t(0.8576084375), w_t(1.063874722), w_t(0.4066927731), w_t(1.287065864), w_t(0.168988198), w_t(0.5261912942), w_t(0.3618382812), w_t(0.04943364859), w_t(-0.5687410235), w_t(-0.7561058402), w_t(-0.2261118442), w_t(-0.2373524457), w_t(-0.07703017443), w_t(0.3454706669), w_t(0.2931414247), w_t(0.5234436393), w_t(-0.091486305), w_t(0.8963116407), w_t(1.06218791), w_t(0.4701116681), w_t(-0.2139937878), w_t(0.1017625481), w_t(-0.38089481), w_t(0.1731204391), w_t(-0.3470915258), w_t(-0.415150404), w_t(0.7003964186), w_t(0.3984088898), w_t(0.9572343826), w_t(0.7545641661), w_t(0.9531810284), w_t(1.263713121), w_t(-0.05935037136), w_t(-0.1635926515), w_t(-0.04425335303), w_t(0.7853572369), w_t(1.356917858), w_t(1.204911709), w_t(0.5166416764), w_t(1.001421213), w_t(-0.7168431878), w_t(0.07375405729), w_t(0.6858247519), w_t(0.3472774327), w_t(0.0392470248), w_t(0.1658955961), w_t(-0.5890246034), w_t(-0.5777393579), w_t(-1.13560164), w_t(-1.097947955), w_t(-0.275877893), w_t(0.1602365226), w_t(-0.4282923043), w_t(-0.4739314318), w_t(0.2548916936), w_t(-0.06735780835), w_t(0.2540327013), w_t(0.2889663279), w_t(0.1650962532), w_t(0.3147414327), w_t(0.2393197268), w_t(-0.6315132976), w_t(0.5402979255), w_t(0.2857886851), w_t(-0.1225552857), w_t(-0.02350287884), w_t(0.005488431547), w_t(-0.2845412195), w_t(-0.3742144406), w_t(-0.1276530176), w_t(0.06028423458), w_t(-0.3642582893), w_t(-0.240797326), w_t(0.04878147691), w_t(-0.4822182059), w_t(-0.9056360722), w_t(-0.5248891711), w_t(-0.1989884526), w_t(0.06154746935), w_t(-0.305873394), w_t(0.02950408496), w_t(0.274918437), w_t(-0.3513556123), w_t(0.2413619906), w_t(0.3566845655), w_t(-0.2986604273), w_t(-0.2504628599), w_t(-0.3780136406), w_t(-0.6698768735), w_t(0.4217111766), w_t(-0.3803106248), w_t(-0.9655980468), w_t(-0.300763309), w_t(-0.4736297131), w_t(-0.6193892956), w_t(0.1388376504), w_t(0.4965980053), w_t(0.3245399296), w_t(0.1111681238), w_t(0.2666248083), w_t(-0.01018148288), w_t(-1.459503531), w_t(-0.5149325728), w_t(-0.7074860334), w_t(0.09358085692), w_t(0.08155638725), w_t(0.07583148777), w_t(0.2921124399), w_t(0.431838721), w_t(-0.7890167236), w_t(0.5408468843), w_t(0.6894373894), w_t(-0.03545506299), w_t(-0.1514335573), w_t(-0.00332862162), w_t(-0.2096090615), w_t(0.2761437297), w_t(0.05510247499), w_t(-0.01062643155), w_t(0.7320663333), w_t(0.946647644), w_t(1.303025723), w_t(0.07492218912), w_t(0.1226737723), w_t(-0.2373685241), w_t(0.0645680204), w_t(0.1842296124), w_t(-0.2975259125), w_t(0.003538405057), w_t(-0.444696486), w_t(-1.136608362), w_t(-0.7535975575), w_t(-0.1229658946), w_t(-0.5299497247), w_t(0.2877675593), w_t(0.03957879543), w_t(-0.2704811394), w_t(0.06800091267), w_t(0.1296995431), w_t(0.05989622697), w_t(0.2117469311), w_t(0.03522937745), w_t(-0.7884806395), w_t(0.8715928197), w_t(1.02559936), w_t(0.2430808246), w_t(1.151453614), w_t(1.790931225), w_t(1.20439589), w_t(-0.2294951677), w_t(0.144177258), w_t(-0.9302834272), w_t(-0.4099677503), w_t(-0.02169039659), w_t(-1.065915704), w_t(0.1955586672), w_t(0.2133858502), w_t(-1.152729511), w_t(0.5846725702), w_t(0.3392590582), w_t(-0.09851934761), w_t(0.4887009859), w_t(0.9463356137), w_t(0.3313886821), w_t(-0.4864784479), w_t(-0.4223239124), w_t(-0.7979434133), w_t(0.2410721034), w_t(0.1885180622), w_t(-0.2083296627), w_t(0.889844358), w_t(0.6465941668), w_t(0.580417335), w_t(0.6612074375), w_t(1.001309514), w_t(0.5680593252), w_t(0.4529211223), w_t(0.1920758188), w_t(-0.06091103703), w_t(0.8443639278), w_t(1.55078876), w_t(0.9786604047), w_t(0.06760532409), w_t(0.8338782787), w_t(-0.4030306041), w_t(0.1524898112), w_t(0.3330175877), w_t(-0.7085234523), w_t(0.2876372337), w_t(0.2092726827), w_t(-0.8520995975), w_t(-0.279839009), w_t(0.286529094), w_t(-0.1194333881), w_t(-0.1710096747), w_t(-0.2097422034), w_t(-0.1386241615), w_t(0.218293488), w_t(-0.04270547628), w_t(0.4084770381), w_t(-0.03761549667), w_t(-0.05720307678), w_t(-0.04191348329), w_t(-0.274620235), w_t(-0.06639778614), w_t(0.02660965919), w_t(0.147885412), w_t(0.2257949859), w_t(0.1087792292), w_t(0.4126686156), w_t(0.2239210904), w_t(-0.330527842), w_t(-0.04681466892), w_t(0.1512856185), w_t(0.264606595), w_t(0.1226509884), w_t(0.4815664887), w_t(0.4527965784), w_t(0.5697368383), w_t(0.6233653426), w_t(1.439856172), w_t(0.06632043421), w_t(0.06452466547), w_t(-0.09251742065), w_t(0.1176924035), w_t(-0.2407726943), w_t(-0.8455098867), w_t(-0.4537151456), w_t(-0.9101884961), w_t(-0.9031621814), w_t(0.2290471345), w_t(0.1580059528), w_t(0.3767346442), w_t(0.0748578608), w_t(0.02005797811), w_t(-0.2299232036), w_t(0.3701491654), w_t(-0.05946476385), w_t(-0.2740379572), w_t(0.2114972472), w_t(-0.07682616264), w_t(-0.5922686458), w_t(0.6003658772), w_t(-0.03524576873), w_t(-0.04203233868), w_t(1.219039083), w_t(0.4984539747), w_t(0.6339049339), w_t(0.03293873742), w_t(0.3710205257), w_t(-0.04754704237), w_t(-0.1681635529), w_t(-0.6909617186), w_t(-0.8064677715), w_t(-0.04102027044), w_t(-0.642973423), w_t(-0.3476428688), w_t(-0.03197419271), w_t(-0.1978392899), w_t(0.1595580578), w_t(-0.08649222553), w_t(-0.3374185264), w_t(0.2241667509), w_t(-0.3721461296), w_t(-0.7063123584), w_t(-0.3971842229), w_t(0.2148198485), w_t(-0.1007318348), w_t(-0.2900683582), w_t(0.4274505079), w_t(-0.4108059108), w_t(-0.2585450709), w_t(0.5061648488), w_t(-0.1397946179), w_t(0.7103447914), w_t(0.02129243873), w_t(0.2684102654), w_t(0.1653280109), w_t(0.1424858868), w_t(0.4047526717), w_t(0.003792463103), w_t(0.6218402386), w_t(-0.1166332364), w_t(0.3514944315), w_t(-0.3971663415), w_t(-0.2648800313), w_t(0.4330304563), w_t(-0.1305714101), w_t(-0.5786803961), w_t(0.4519172013), w_t(0.01739969291), w_t(-0.4403995275), w_t(-0.3156916499), w_t(0.3706044853), w_t(-0.6622852683), w_t(-0.8701798916), w_t(-0.1570679843), w_t(-0.9667893052), w_t(-0.7669941783), w_t(-1.411846042), w_t(-0.8224241138), w_t(-2.22032547), w_t(-0.1053469926), w_t(-0.08146195114), w_t(0.2785781324), w_t(0.3288400173), w_t(0.2996626794), w_t(0.3915881813), w_t(0.6712047458), w_t(0.2817254663), w_t(0.1862804145), w_t(-0.534307003), w_t(-0.3641861379), w_t(0.002683053026), w_t(-0.2215188593), w_t(-0.02904433198), w_t(0.3413313627), w_t(-0.2507537603), w_t(0.8614113927), w_t(-0.2713795602), w_t(-0.1481364518), w_t(-0.1766789109), w_t(0.5664138198), w_t(0.01701380871), w_t(0.4425863624), w_t(0.8484424353), w_t(0.6638000607), w_t(0.7251189351), w_t(0.8512920141), w_t(-0.05769016594), w_t(-0.4253591895), w_t(-0.7301115394), w_t(0.1819154918), w_t(-0.193483755), w_t(-0.2719143629), w_t(0.2946304381), w_t(0.4219505489), w_t(1.045786977), w_t(0.2066816092), w_t(-0.173300758), w_t(0.005354768131), w_t(0.02445867658), w_t(-0.06312289834), w_t(-0.2960990071), w_t(-0.2754924297), w_t(-0.1593800485), w_t(-0.4196579158), w_t(-0.1024571806), w_t(-0.2406388968), w_t(0.4374564588), w_t(-0.1261205822), w_t(-0.1077560559), w_t(0.2364860773), w_t(-0.6355580688), w_t(-0.2907755673), w_t(-0.381424278), w_t(0.1926943362), w_t(0.2669791579), w_t(-0.2434113175), w_t(0.2784732878), w_t(0.01794794016), w_t(0.5001087785), w_t(1.211271286), w_t(0.5569714308), w_t(1.200442433), w_t(-0.3876507282), w_t(-0.4027663469), w_t(-0.3539576828), w_t(-0.8577437401), w_t(-0.4482169449), w_t(-0.01842897758), w_t(-1.110515833), w_t(-0.2339638323), w_t(0.05152191594), w_t(0.3655603528), w_t(0.2614204884), w_t(-0.1026524752), w_t(-0.1706938595), w_t(-0.1975715607), w_t(-0.05988307297), w_t(-0.8818150163), w_t(-0.1017513126), w_t(0.5366674066), w_t(-0.3477651775), w_t(-0.5651404262), w_t(-1.098408461), w_t(-0.2928179801), w_t(-0.6039707661), w_t(-0.3176948726), w_t(0.7937917709), w_t(1.028550982), w_t(1.243052006), w_t(0.1198417693), w_t(-0.1536532342), w_t(-0.02739072032), w_t(-0.7486829162), w_t(-0.818667829), w_t(-0.226743415), w_t(-1.297188759), w_t(-0.548813343), w_t(-0.2722063959), w_t(-0.1241800711), w_t(-0.07591923326), w_t(0.3040108383), w_t(-0.1464054734), w_t(-0.1605984569), w_t(-0.06299474835), w_t(-0.7401088476), w_t(-0.3841699958), w_t(-0.888340354), w_t(-0.468940407), w_t(-0.8968364), w_t(-1.125785828), w_t(-1.053776622), w_t(-0.7692134976), w_t(0.4737175703), w_t(0.04813986644), w_t(0.8805357814), w_t(1.077130437), w_t(0.312964648), w_t(0.6787054539), w_t(0.1646535248), w_t(0.6045962572), w_t(0.1768610328), w_t(0.01554419845), w_t(0.3631031811), w_t(-0.07220208645), w_t(0.4440008104), w_t(-0.09071021527), w_t(0.1708556563), w_t(0.4463360012), w_t(-0.2265807986), w_t(0.0165293999), w_t(-0.09269160032), w_t(-0.9055645466), w_t(-0.6849614978), w_t(-1.065391421), w_t(-0.005625935271), w_t(-0.6522161961), w_t(-0.3530318737), w_t(-1.198750257), w_t(-0.8268156052), w_t(-0.2364344746), w_t(-1.123296022), w_t(-0.553581357), w_t(-0.4650978446), w_t(-0.1317282617), w_t(0.1984625906), w_t(0.1895544082), w_t(0.09770195931), w_t(-0.02897283062), w_t(0.09723966569), w_t(0.01401696634), w_t(0.3199475408), w_t(0.552498877), w_t(-0.4185627699), w_t(0.3894314468), w_t(0.72206074), w_t(-0.1585996002), w_t(0.3409816027), w_t(0.01337055769), w_t(0.1870184541), w_t(0.1953575164), w_t(-0.9018642902), w_t(0.04654127359), w_t(0.2066724598), w_t(0.01102318522), w_t(-0.001080458285), w_t(0.5620040894), w_t(-0.3480796218), w_t(0.03106619604), w_t(0.7608914971), w_t(1.116818666), w_t(0.8848467469), w_t(0.6132854223), w_t(0.4491062462), w_t(-0.009003996849), w_t(0.0971936211), w_t(-0.1222820729), w_t(-0.477986902), w_t(-0.6785507798), w_t(-0.252776444), w_t(-0.1747176945), w_t(-0.08052005619), w_t(-0.162626937), w_t(0.142583102), w_t(-0.08726487309), w_t(-0.1983514428), w_t(0.114990823), w_t(0.1603697538), w_t(0.1254204512), w_t(-0.116914928), w_t(-0.5900642872), w_t(-0.8743411303), w_t(-0.07319830358), w_t(-0.4632052779), w_t(-0.7180794477), w_t(-0.5266532898), w_t(-0.9997036457), w_t(-0.7963021398), w_t(0.4669131637), w_t(0.3619758785), w_t(0.2517425716), w_t(0.3935823143), w_t(-0.1124775559), w_t(-0.2551941574), w_t(-0.2437183261), w_t(-0.6523815393), w_t(-0.47057423), w_t(0.4588794708), w_t(0.6958338022), w_t(-0.05658112839), w_t(0.520562768), w_t(0.5369104743), w_t(-0.10941156), w_t(0.5198909044), w_t(0.2155989856), w_t(0.2597598732), w_t(-0.8599576354), w_t(-0.7232682705), w_t(-0.7012166977), w_t(-0.7959455848), w_t(-0.7605195045), w_t(-1.122110724), w_t(-0.9061562419), w_t(-0.4908819199), w_t(0.01162194274), w_t(0.9007577896), w_t(0.4344408214), w_t(0.9828382134), w_t(-0.03423834965), w_t(-0.1795043498), w_t(0.2496551871), w_t(-0.5142297745), w_t(-0.3199416101), w_t(-0.2231134623), w_t(-0.09333001822), w_t(0.1420158595), w_t(-0.1445265114), w_t(-0.2653628886), w_t(0.253910929), w_t(-0.2045274675), w_t(0.1255511045), w_t(0.7895356417), w_t(0.06420837343), w_t(0.5878534317), w_t(0.4969906509), w_t(-0.1180834547), w_t(0.6997921467), w_t(0.3782376945), w_t(0.3281596005), w_t(0.702696383), w_t(0.8939723372), w_t(0.7539877295), w_t(0.1390297115), w_t(-0.1359700263), w_t(0.03283217922), w_t(-0.2583840191), w_t(-0.3166669607), w_t(-0.1145249307), w_t(0.1947575361), w_t(0.07264217734), w_t(-0.02963833511), w_t(-0.02439801022), w_t(-0.3966446221), w_t(-0.7245354652), w_t(0.0941048637), w_t(-0.1492012888), w_t(-0.5633821487), w_t(-0.4034358263), w_t(-0.2848578095), w_t(-0.7239071131), w_t(0.4234254956), w_t(-0.04265616834), w_t(-0.5426011682), w_t(0.4519641995), w_t(0.8523408771), w_t(-0.1091938689), w_t(0.8893355727), w_t(0.9812182784), w_t(1.45283556), w_t(-0.8895024061), w_t(-0.5137703419), w_t(-1.242181897), w_t(-0.1824989915), w_t(-0.5247615576), w_t(-1.497500062), w_t(0.2863378823), w_t(-0.3995510638), w_t(-0.6366448402), w_t(0.1774342954), w_t(-0.01402774639), w_t(-0.5239862204), w_t(0.2084593475), w_t(-0.4709092379), w_t(-0.5145008564), w_t(-0.2812215984), w_t(-0.5503393412), w_t(-0.3871244788), w_t(0.6249390244), w_t(0.3892420232), w_t(0.221538797), w_t(1.325252533), w_t(0.4803282022), w_t(0.06709816307), w_t(-0.08414687216), w_t(0.2338005751), w_t(-0.172169596), w_t(1.596452236), w_t(0.3689880371), w_t(0.712295711), w_t(1.407793164), w_t(0.9608581662), w_t(0.6294592023), w_t(0.2017959207), w_t(0.1513190269), w_t(0.9456037283), w_t(-0.1638244092), w_t(-0.04339261726), w_t(0.5905456543), w_t(0.3605733812), w_t(0.690641582), w_t(0.8899950385), w_t(0.8990821242), w_t(1.211632013), w_t(-0.9745987058), w_t(-0.1892074794), w_t(-0.08356215805), w_t(-0.1296124309), w_t(-0.09104498476), w_t(-0.05491254851), w_t(-0.1393701881), w_t(-0.1307515204), w_t(0.2399696559), w_t(-0.1282017231), w_t(-0.4451797009), w_t(-0.4585544169), w_t(-0.02732124925), w_t(-0.7103060484), w_t(-0.8880775571), w_t(-0.3781487942), w_t(-0.3746306598), w_t(-0.5669654608), w_t(-1.401834249), w_t(0.06505250931), w_t(0.1780577302), w_t(-0.330481112), w_t(0.09755531698), w_t(-0.1905664951), w_t(-0.2256793678), w_t(0.2539741099), w_t(-0.2597896457), w_t(-0.5822362304), w_t(-0.4790225625), w_t(-0.03142144904), w_t(-0.2604950666), w_t(0.2347306311), w_t(0.5584895015), w_t(0.1180480868), w_t(0.05632335693), w_t(0.7735293508), w_t(0.5513396263), w_t(-0.3003464937), w_t(0.1843581349), w_t(0.3971827626), w_t(-0.008764003403), w_t(-0.09999927878), w_t(0.02588858642), w_t(0.5979745388), w_t(0.3585125804), w_t(-0.9481250048), w_t(-0.6116076112), w_t(0.1108057126), w_t(0.1136385575), w_t(0.4248295128), w_t(0.5655620098), w_t(-0.1793164611), w_t(1.697209239), w_t(0.7933393121), w_t(0.1241718903), w_t(-0.06129439175), w_t(-0.1948082894), w_t(0.09376019239), w_t(-0.1446526349), w_t(-0.3091097474), w_t(0.06900791079), w_t(-0.04091146961), w_t(0.2799040675), w_t(-0.08853813261), w_t(-0.2432934344), w_t(0.02302549593), w_t(0.0617974326), w_t(-0.6220408082), w_t(-0.3403339684), w_t(0.2321218252), w_t(-0.4120662212), w_t(0.2083852142), w_t(-0.3138077259), w_t(0.2203764021), w_t(0.2811304331), w_t(0.1315271407), w_t(0.8100989461), w_t(0.8370956182), w_t(-0.1457769722), w_t(0.4231264591), w_t(0.3816625476), w_t(0.1947237253), w_t(-0.0001570200548), w_t(0.2340081185), w_t(0.1109203398), w_t(-0.3891638517), w_t(-0.3666270971), w_t(-0.332434684), w_t(-0.744141221), w_t(-1.421904802), w_t(-1.178605556), w_t(-0.3324847817), w_t(-0.0782553032), w_t(1.354844451), w_t(-0.5209261179), w_t(-0.5714728832), w_t(0.6712489724), w_t(0.3252547085), w_t(0.297755897), w_t(0.4416562915), w_t(0.1161706746), w_t(0.7106121778), w_t(1.448683381), w_t(0.8872096539), w_t(0.8347777724), w_t(0.9953268766), w_t(1.108030796), w_t(1.359138489), w_t(1.077982903), w_t(-0.564419508), w_t(-0.05780200288), w_t(0.4056299031), w_t(-0.1996611208), w_t(-0.1865360737), w_t(-0.3406972289), w_t(0.04047013447), w_t(-0.1333862245), w_t(-0.6639831662), w_t(0.009394493885), w_t(-0.1188648492), w_t(0.152341336), w_t(-0.7224548459), w_t(-0.376414746), w_t(0.2876196206), w_t(-0.33717224), w_t(0.1825786531), w_t(0.8577620983), w_t(-0.3684058487), w_t(-0.06908725947), w_t(0.501445055), w_t(-0.108692348), w_t(-0.3436739743), w_t(-0.9337695241), w_t(0.4421119392), w_t(0.06149698049), w_t(-0.9660853148), w_t(0.06710334122), w_t(-0.2943420708), w_t(-0.7046844959), w_t(0.006807064172), w_t(-0.1866203547), w_t(0.7772606015), w_t(-0.620593071), w_t(0.03438647091), w_t(0.3652364612), w_t(0.1941573322), w_t(-0.1036196128), w_t(0.1066858247), w_t(-0.009667061269), w_t(-0.01119729783), w_t(-0.3106221557), w_t(-0.17414774), w_t(-0.2364182323), w_t(-0.1192840114), w_t(0.2499197125), w_t(0.2211519033), w_t(0.09279505908), w_t(0.04515209422), w_t(0.2569712996), w_t(0.1848878413), w_t(0.3909739852), w_t(0.273958981), w_t(0.4702188075), w_t(0.1986817718), w_t(0.1813683063), w_t(0.05652309954), w_t(-0.07587534189), w_t(-0.3623515069), w_t(-0.6037060022), w_t(-0.6887236238), w_t(-0.6184349656), w_t(-0.4506912529), w_t(0.111258477), w_t(-0.0003095640277), w_t(0.1970886737), w_t(0.6204756498), w_t(0.3027828634), w_t(0.3270259798), w_t(0.281828016), w_t(0.373001039), w_t(0.3123551607), w_t(0.2716069221), w_t(0.5991534591), w_t(0.9676759839), w_t(0.4415583909), w_t(0.08647336066), w_t(0.1896810532), w_t(0.1120705158), w_t(-0.2021909207), w_t(0.2326619625), w_t(-0.1588893682), w_t(-0.3070077896), w_t(-0.02081464417), w_t(-0.2395270616), w_t(-0.1208492741), w_t(-0.2282603979), w_t(-0.7802532911), w_t(-0.359269917), w_t(0.08290319145), w_t(-0.3500811756), w_t(0.1722652614), w_t(0.270855248), w_t(0.06398008764), w_t(0.1429092586), w_t(0.506985724), w_t(0.3384225667), w_t(-0.1677375883), w_t(0.2298474908), w_t(0.0913625434), w_t(-0.2999648452), w_t(-0.111468032), w_t(-0.1502237469), w_t(-0.1212062761), w_t(0.2639038265), w_t(-0.05515442416), w_t(-0.1818305254), w_t(-0.2001115978), w_t(-0.1979143322), w_t(0.329192847), w_t(0.1359841228), w_t(0.1850582212), w_t(-0.1048486531), w_t(-0.0809148699), w_t(-0.03702873737), w_t(-0.2412029952), w_t(0.1097145006), w_t(0.2167837322), w_t(0.3505600393), w_t(0.4716715813), w_t(-0.125246942), w_t(0.1957774311), w_t(0.2201512009), w_t(-0.4200813472), w_t(-0.2562325299), w_t(-0.3059357107), w_t(0.004061921965), w_t(0.111435622), w_t(0.4708981514), w_t(0.1699303687), w_t(0.1103286967), w_t(0.405192703), w_t(0.1166938767), w_t(0.1305817366), w_t(0.159390673), w_t(0.0460511744), w_t(0.04196481407), w_t(-0.4847290516), w_t(1.027266741), w_t(0.6716933846), w_t(0.8787878752), w_t(0.862603426), w_t(0.5726538897), w_t(1.880420804), w_t(-0.06024646387), w_t(-0.2144552767), w_t(-0.1765577197), w_t(-0.4632619619), w_t(-0.2029232532), w_t(0.0333481878), w_t(-0.3605921865), w_t(-0.1184839085), w_t(0.4183165729), w_t(0.06396064162), w_t(-0.3478097916), w_t(-0.2858788669), w_t(0.064124614), w_t(-0.2565437555), w_t(-0.4560194016), w_t(0.8807277083), w_t(1.171930671), w_t(0.1133018285), w_t(-0.1763049662), w_t(-0.3014929891), w_t(-0.3106030524), w_t(-0.1995441616), w_t(-0.05789674446), w_t(-0.4457428753), w_t(-0.1678757071), w_t(-0.6502780318), w_t(-0.7249189615), w_t(-0.2759269178), w_t(-0.5263160467), w_t(-0.5063434243), w_t(-0.8228592277), w_t(-0.1985400021), w_t(-0.06339299679), w_t(-0.3282961547), w_t(-0.1187554151), w_t(0.2093482614), w_t(-0.03898679465), w_t(-0.172163412), w_t(-0.02367230132), w_t(-0.04574984312), w_t(-0.2695715725), w_t(-0.1138466597), w_t(0.007073465735), w_t(-0.2715590596), w_t(-0.1467953771), w_t(0.5827752948), w_t(0.4605075717), w_t(0.4361585379), w_t(0.2876433134), w_t(0.1009882465), w_t(0.5014104843), w_t(-0.0519737117), w_t(0.2669309378), w_t(0.1449584514), w_t(-0.08063594997), w_t(0.3129135668), w_t(-0.1643786877), w_t(-0.1388364732), w_t(-0.08293450624), w_t(-0.3501992822), w_t(0.103693299), w_t(0.1435783803), w_t(0.1342647672), w_t(-0.2550475895), w_t(-0.2623176277), w_t(-0.2148127854), w_t(-0.002835540567), w_t(-0.03710702434), w_t(0.02398255095), w_t(0.02411042713), w_t(-0.1142055988), w_t(-0.1970187277), w_t(0.665420711), w_t(0.410949558), w_t(0.365008086), w_t(0.3096911013), w_t(-0.0258687865), w_t(0.2434086502), w_t(0.06170804426), w_t(-0.3366474807), w_t(0.2384603024), w_t(-0.4018535018), w_t(-0.5006962419), w_t(-0.6727603078), w_t(-0.7691044807), w_t(-0.700537622), w_t(-0.83346802), w_t(-0.3685951829), w_t(-0.01291252207), w_t(0.03825261071), w_t(0.1790114343), w_t(0.273134619), w_t(0.1798592955), w_t(0.2132205367), w_t(0.202132374), w_t(-0.004297921434), w_t(-0.1646803617), w_t(0.3575005531), w_t(0.1635037065), w_t(-0.1106693521), w_t(-0.1903768778), w_t(0.3865306973), w_t(0.2063507438), w_t(0.09980659932), w_t(0.3106581867), w_t(-0.2697312534), w_t(-0.3302298486), w_t(-0.2659813166), w_t(-0.08977715671), w_t(-0.3154333532), w_t(-0.3535139859), w_t(-0.5729261041), w_t(-0.4032857716), w_t(-0.1679655612), w_t(-0.273059845), w_t(0.1716300249), w_t(0.4330829978), w_t(0.1637556106), w_t(0.4019483328), w_t(0.5952681899), w_t(0.5890130401), w_t(0.2588773072), w_t(0.6726526618), w_t(-0.08113394678), w_t(0.1284956336), w_t(-0.2943288386), w_t(0.1536683589), w_t(0.0869641304), w_t(0.6156752706), w_t(0.3827776015), w_t(0.2164088339), w_t(0.162447378), w_t(-0.04769350961), w_t(-0.2675833106), w_t(0.2705251276), w_t(0.09886535257), w_t(-0.427023977), w_t(-0.5643122792), w_t(-0.1433826834), w_t(-0.1462907642), w_t(0.4268786013), w_t(0.2290180475), w_t(0.3842713535), w_t(1.324485779), w_t(0.4192424417), w_t(0.04329723865), w_t(-0.1233882606), w_t(-0.04290969297), w_t(-0.08947753161), w_t(-0.1332509965), w_t(-0.38350299), w_t(-0.2873648703), w_t(0.4182980061), w_t(-0.5303481817), w_t(-0.2000566125), w_t(0.1535822451), w_t(0.3163951933), w_t(0.6075126529), w_t(0.1982540786), w_t(1.208918452), w_t(1.046812892), w_t(0.2186025828), w_t(0.1136573106), w_t(-0.2782855332), w_t(-0.2023956329), w_t(-0.1409752071), w_t(0.06595692784), w_t(-0.6668820977), w_t(-0.1953810751), w_t(-0.2863481343), w_t(-0.5809594393), w_t(0.1184163392), w_t(0.1498045325), w_t(1.393449426), w_t(0.1805735379), w_t(0.9881777763), w_t(1.858484268), w_t(0.1625160575), w_t(0.9729791284), w_t(0.1792633384), w_t(-0.07020393759), w_t(0.1771146059), w_t(-0.04777042568), w_t(-0.1115840375), w_t(-0.326867491), w_t(0.0367074199), w_t(-0.03814725578), w_t(0.115993768), w_t(0.04159355909), w_t(-0.5359063745), w_t(-0.5679512024), w_t(0.03312290832), w_t(-0.5123147368), w_t(-0.8043672442), w_t(-0.4177528918), w_t(-0.3670153022), w_t(-0.8265731335), w_t(-0.5569944978), w_t(0.2640948594), w_t(0.3754284978), w_t(0.09524293244), w_t(0.380492866), w_t(-0.0417486988), w_t(0.2408876568), w_t(0.4475680888), w_t(0.3687602282), w_t(0.04558594897), w_t(-0.2505717874), w_t(0.3318904936), w_t(-0.04090120271), w_t(0.1028731689), w_t(0.9340372682), w_t(0.4165641963), w_t(0.1328178346), w_t(0.50394243), w_t(-0.01359564252), w_t(-0.6579908133), w_t(0.0004632292839), w_t(0.394702971), w_t(0.4862741828), w_t(0.63662678), w_t(0.1356728524), w_t(0.3669837713), w_t(0.1911975592), w_t(0.02179958671), w_t(-0.136481449), w_t(-0.3083401918), w_t(0.2831189036), w_t(0.2257574052), w_t(0.7743709087), w_t(0.2558845878), w_t(1.493823886), w_t(0.6253888607), w_t(-0.1477863044), w_t(-0.5261906981), w_t(-0.2872063816), w_t(-0.0235945899), w_t(0.06436053663), w_t(0.2177648842), w_t(0.04947505891), w_t(0.09906630218), w_t(0.05439961329), w_t(0.05378299579), w_t(-0.1117334887), w_t(-0.4447687864), w_t(-0.05223771557), w_t(-0.2638942599), w_t(-0.651452899), w_t(-0.07167638838), w_t(0.0008247880032), w_t(-0.2694434524), w_t(-0.433606714), w_t(0.1673232913), w_t(0.5946806669), w_t(0.5769553781), w_t(0.879824698), w_t(1.125298977), w_t(0.8967368603), w_t(0.6672192812), w_t(0.8016318083), w_t(0.2447441369), w_t(-0.06872595847), w_t(-0.07661050558), w_t(0.02803756483), w_t(-0.5633847117), w_t(-0.4149858057), w_t(-0.2411131114), w_t(-0.5227023959), w_t(-0.5460137725), w_t(-0.3945607543), w_t(-0.2663162947), w_t(-0.9825825691), w_t(0.2009553164), w_t(-0.1890354156), w_t(-1.130798697), w_t(-0.180467546), w_t(0.3013284802), w_t(-0.9526234865), w_t(0.06155560166), w_t(0.3243193626), w_t(0.5437461734), w_t(1.145820856), w_t(0.830106318), w_t(0.8201259971), w_t(1.140987515), w_t(-0.1120208353), w_t(0.1181526408), w_t(0.1953210235), w_t(-0.6071651578), w_t(-0.1985884756), w_t(0.5254940391), w_t(0.0171908401), w_t(-0.05266634375), w_t(-0.6333601475), w_t(0.167720899), w_t(-0.09634101391), w_t(-0.2928386927), w_t(0.08518462628), w_t(-0.4614615142), w_t(-0.2010104954), w_t(-0.6323530674), w_t(-0.5634539723), w_t(0.002450997941), w_t(-0.09834472835), w_t(-0.4919302166), w_t(-0.5255052447), w_t(-0.5162690878), w_t(-0.5983150005), w_t(0.9639395475), w_t(-0.2730620205), w_t(-0.7873197794), w_t(0.3564017415), w_t(0.8365334868), w_t(-0.08930606395), w_t(-0.2823836505), w_t(0.4351449609), w_t(0.8230382204), w_t(0.1909676641), w_t(0.2282791734), w_t(0.3183802068), w_t(0.575520277), w_t(-0.6572186947), w_t(-0.06031747535), w_t(1.118636966), w_t(0.1945793182), w_t(-0.1349558681), w_t(-0.2544643283), w_t(-0.08038108051), w_t(-0.05069701746), w_t(-0.2557852566), w_t(-0.1861856431), w_t(0.142193988), w_t(-0.01494807191), w_t(0.03729756549), w_t(-0.01396047417), w_t(0.2826797664), w_t(0.2269844562), w_t(0.3116779327), w_t(0.4504953921), w_t(0.4370470643), w_t(0.2359218299), w_t(0.3546503484), w_t(-0.280837208), w_t(0.02881413698), w_t(0.6640659571), w_t(-0.186955139), w_t(0.2261320055), w_t(0.6050603986), w_t(0.07832323015), w_t(0.4637987018), w_t(0.9881744385), w_t(0.3790932298), w_t(0.009337814525), w_t(-0.08076412976), w_t(-0.1201373264), w_t(-0.3443230391), w_t(-0.4594993591), w_t(-0.4626688659), w_t(-0.7741322517), w_t(-0.5466818213), w_t(0.3383433521), w_t(0.2783541083), w_t(0.2426897585), w_t(-0.07396486402), w_t(0.08550065011), w_t(-0.04495055601), w_t(0.02061655186), w_t(-0.001871101907), w_t(-0.2246707827), w_t(0.3557907939), w_t(0.005349004176), w_t(-0.02842753381), w_t(0.4216977358), w_t(0.3622121215), w_t(0.07989962399), w_t(0.45299685), w_t(0.2309319377), w_t(0.3539943993), w_t(0.3327773809), w_t(-0.1511424333), w_t(-0.1681328416), w_t(-0.2000211775), w_t(-0.08072582632), w_t(-0.2216164023), w_t(-0.197363168), w_t(-0.7100555897), w_t(-0.5045034885), w_t(-0.5274294615), w_t(-0.08308710158), w_t(-0.3896591067), w_t(-0.4351586699), w_t(-0.5380367637), w_t(-1.089373708), w_t(0.1835851669), w_t(-0.06817996502), w_t(-0.7742881179), w_t(0.08027713746), w_t(0.2265418172), w_t(0.06245201081), w_t(0.2243231237), w_t(0.07558189332), w_t(0.0389460586), w_t(-0.08789204806), w_t(-0.1787069142), w_t(0.1626180261), w_t(0.1135104448), w_t(0.1300950497), w_t(0.04119189084), w_t(-0.09247610718), w_t(-0.118178688), w_t(0.1566298455), w_t(0.7279222608), w_t(0.4411259592), w_t(0.1161256209), w_t(-0.8422315717), w_t(-0.4495286047), w_t(-0.4047670662), w_t(-0.09135206789), w_t(-0.1184279323), w_t(-1.520091653), w_t(0.3076822758), w_t(-0.004559936002), w_t(-1.076937795), w_t(0.577003181), w_t(0.2189424187), w_t(-0.8358656168), w_t(0.008084732108), w_t(-0.3461725712), w_t(-0.5685324669), w_t(-1.24647069), w_t(-1.002205849), w_t(-0.9178433418), w_t(-0.1081573293), w_t(0.2658700943), w_t(0.3187291324), w_t(0.5132465959), w_t(0.4699121118), w_t(0.222059682), w_t(0.5592955351), w_t(0.6600067019), w_t(0.5122720599), w_t(-0.2404531986), w_t(-0.3009340763), w_t(-0.4771353602), w_t(-0.6747224331), w_t(0.008382945322), w_t(-0.1676791906), w_t(-0.5554357171), w_t(0.4758407474), w_t(0.0302330032), w_t(-0.1904814094), w_t(-0.08070772141), w_t(0.1612160653), w_t(0.2430245727), w_t(0.272372216), w_t(0.5907918215), w_t(0.4549617767), w_t(0.9103155732), w_t(1.368548632), w_t(0.1355056316), w_t(0.5048926473), w_t(-0.1013755873), w_t(0.6228221655), w_t(0.3877240121), w_t(-0.05377110466), w_t(-0.180993557), w_t(0.4204899669), w_t(0.07389308512), w_t(-0.04706182703), w_t(-0.2454008013), w_t(-0.2096360326), w_t(0.1219281927), w_t(-0.1216497719), w_t(0.08117138594), w_t(-0.1830547154), w_t(-0.2436818928), w_t(0.1024048552), w_t(-0.6994761229), w_t(-0.507147789), w_t(-0.1727254093), w_t(-0.03750795126), w_t(-0.1447362155), w_t(-0.0929427743), w_t(-0.1307463646), w_t(-0.008191098459), w_t(-0.3007706702), w_t(-0.08777128905), w_t(0.1962638497), w_t(0.4728203416), w_t(0.08330946416), w_t(0.4245902002), w_t(0.6303126216), w_t(0.4795102477), w_t(0.5736703873), w_t(0.7156576514), w_t(-0.1372578293), w_t(-0.002137228847), w_t(-0.1533657312), w_t(0.01442286), w_t(-0.1342842579), w_t(-0.6601001024), w_t(-0.3867439628), w_t(-0.8282287121), w_t(-0.8637942076), w_t(-0.06542807072), w_t(-0.2730629146), w_t(-0.1343614012), w_t(-0.1707908958), w_t(-0.1140861064), w_t(-0.283832252), w_t(0.0868915692), w_t(-0.3317078054), w_t(-0.3862981498), w_t(0.3565134406), w_t(0.2486919463), w_t(-0.2847801447), w_t(0.6846880913), w_t(0.7359530926), w_t(0.2404607385), w_t(1.3238554), w_t(0.09765743464), w_t(0.4704455733), w_t(0.08246528357), w_t(0.2622126937), w_t(-0.3902521729), w_t(-0.4148520231), w_t(-0.4068625867), w_t(-0.6413134336), w_t(-0.28607741), w_t(-0.9177356958), w_t(-0.4171399176), w_t(-0.2087578475), w_t(-0.1997697353), w_t(-0.4027472436), w_t(-0.1605403572), w_t(-0.5371623039), w_t(-0.1842964888), w_t(0.1119846106), w_t(0.2624334693), w_t(-0.56446594), w_t(0.1089435816), w_t(0.02076908946), w_t(-0.3724701703), w_t(0.3268091083), w_t(0.05317780003), w_t(-0.00163437787), w_t(-0.07187949121), w_t(-0.4328427613), w_t(0.4611859322), w_t(-0.1321702451), w_t(-0.110192284), w_t(0.04392902926), w_t(-0.09858505428), w_t(-0.01266567409), w_t(0.168950811), w_t(0.6109451056), w_t(-0.1826156974), w_t(0.4370971024), w_t(-0.4020718038), w_t(-0.2965041399), w_t(-0.1373033524), w_t(-0.2853872478), w_t(-0.7098497152), w_t(-0.007391401567), w_t(-0.1092601642), w_t(-0.5276776552), w_t(-0.7962540984), w_t(0.4880238175), w_t(-0.2414639294), w_t(-0.9718539715), w_t(-0.310962081), w_t(-0.7989720702), w_t(-0.9660901427), w_t(-1.303976536), w_t(-0.5445782542), w_t(-1.725365758), w_t(-0.002111483598), w_t(0.3361486197), w_t(0.1560555696), w_t(0.4779058993), w_t(0.2465041727), w_t(0.1628696322), w_t(0.5812629461), w_t(0.06029196456), w_t(0.2016294301), w_t(-0.1072600856), w_t(-0.4951240718), w_t(-0.1041019186), w_t(-0.2381758988), w_t(-0.103120327), w_t(0.4204601645), w_t(-0.1184585914), w_t(0.664613843), w_t(-0.3865738809), w_t(-0.1279932261), w_t(0.1812879443), w_t(0.8246059418), w_t(0.943516314), w_t(0.9471448064), w_t(1.32128334), w_t(0.480114162), w_t(0.8917050362), w_t(1.484078765), w_t(0.2522176504), w_t(0.1091018319), w_t(0.1686522961), w_t(0.366459012), w_t(0.03923061118), w_t(0.1434162557), w_t(-1.265984774), w_t(-0.9552755356), w_t(-0.255700022), w_t(-0.08167038858), w_t(0.1741544455), w_t(-0.1684566587), w_t(-0.09319206327), w_t(-0.2224536836), w_t(-0.1934056431), w_t(0.06115408242), w_t(-0.3046952188), w_t(-0.3517745733), w_t(0.6156243682), w_t(0.3748852015), w_t(-0.2203883678), w_t(0.4854665995), w_t(0.4294417799), w_t(0.05788490549), w_t(0.2274907827), w_t(0.3102867305), w_t(0.7269163728), w_t(-0.1029715687), w_t(-0.07414725423), w_t(0.29708606), w_t(0.1553032547), w_t(0.2665657103), w_t(0.4326626062), w_t(-0.2097236663), w_t(-0.5650036335), w_t(-0.9679639339), w_t(-0.2710462213), w_t(0.01226986758), w_t(0.2731504142), w_t(-0.6671216488), w_t(0.1725268066), w_t(-0.1398938447), w_t(0.07450967282), w_t(0.3334673941), w_t(-0.04897108674), w_t(0.01033432409), w_t(-0.08720258623), w_t(0.1358989626), w_t(0.1361204237), w_t(-0.1501898468), w_t(-0.05356515571), w_t(0.938520968), w_t(0.1931279004), w_t(0.6593486667), w_t(-0.146681577), w_t(0.2096073776), w_t(0.1838458776), w_t(-0.1202705055), w_t(0.1507150978), w_t(-0.09024315327), w_t(-1.402066827), w_t(-1.053233027), w_t(-1.119691491), w_t(-0.5005302429), w_t(-0.0662669912), w_t(-0.2969641685), w_t(0.07018493861), w_t(0.121969372), w_t(-0.2886414826), w_t(0.3617082834), w_t(0.2835180461), w_t(0.284648478), w_t(0.0125461733), w_t(0.1933719218), w_t(-0.3337119818), w_t(-0.479637295), w_t(-0.4186984301), w_t(-0.5021704435), w_t(-0.0007996066706), w_t(0.3812587261), w_t(0.2847836018), w_t(-0.1665347964), w_t(0.1555180401), w_t(0.06850872934), w_t(0.5625857115), w_t(0.2829434872), w_t(0.08370978385), w_t(-0.2070126832), w_t(-0.5026549101), w_t(-1.156063914), w_t(-0.2926473618), w_t(-0.05813701451), w_t(-0.1619680971), w_t(0.1732916236), w_t(0.3914717138), w_t(0.2607717216), w_t(0.4699441195), w_t(0.6781254411), w_t(0.4425218999), w_t(0.1034586504), w_t(0.2553565502), w_t(-1.045806289), w_t(0.1941398531), w_t(-0.1608662158), w_t(0.4988825619), w_t(0.6677986979), w_t(1.213216186), w_t(0.5042111874), w_t(-0.8473654985), w_t(-0.3811015487), w_t(-0.4218424261), w_t(-0.01338773314), w_t(-0.1475184411), w_t(-0.7849823833), w_t(0.2143689841), w_t(0.379817456), w_t(0.1332596391), w_t(0.03560075536), w_t(0.3766551018), w_t(-0.05676086619), w_t(0.5191690326), w_t(0.8867336512), w_t(0.2753485143), w_t(-0.3018886149), w_t(-0.3395267725), w_t(-0.06913413107), w_t(0.1800981462), w_t(0.3252314925), w_t(-0.3304718137), w_t(-0.2040534019), w_t(-0.2235057801), w_t(-0.4042735696), w_t(0.1342196465), w_t(0.6659026742), w_t(0.4584906697), w_t(0.3412792683), w_t(0.3054248095), w_t(-0.6449631453), w_t(0.889338851), w_t(1.220956087), w_t(0.2683910728), w_t(-0.4190250635), w_t(-0.2186780572), w_t(-0.81986624), w_t(0.1710952073), w_t(-0.361318171), w_t(-0.2916964889), w_t(0.2208509296), w_t(0.07627331465), w_t(-0.1869551688), w_t(-0.4198066592), w_t(-0.2172495127), w_t(0.1357710809), w_t(0.0935613811), w_t(0.236078769), w_t(0.005201495253), w_t(-0.0006958672893), w_t(-0.2460846007), w_t(-0.1107803211), w_t(-0.1945010573), w_t(-0.4037709236), w_t(-0.3716793358), w_t(0.5382128954), w_t(0.5916763544), w_t(0.7264434099), w_t(0.2651211023), w_t(0.3104762733), w_t(0.8096375465), w_t(0.4065871537), w_t(0.3176719546), w_t(0.636795938), w_t(0.4649250805), w_t(0.5911774039), w_t(0.1799377352), w_t(0.669570148), w_t(0.2886725962), w_t(0.7171533704), w_t(0.02578897402), w_t(0.106681399), w_t(0.3617370129), w_t(-0.3076268435), w_t(0.3929172754), w_t(-0.3661110401), w_t(-0.3693820536), w_t(0.152140826), w_t(0.02152193896), w_t(-0.005260309204), w_t(0.3656388819), w_t(0.2162498832), w_t(0.3848393857), w_t(0.2545447648), w_t(0.2935083807), w_t(0.3915129602), w_t(0.5843861699), w_t(1.063661218), w_t(0.9951356053), w_t(0.7856216431), w_t(1.66919744), w_t(-0.2791545093), w_t(-0.05772507563), w_t(-0.3236616552), w_t(-0.1731445938), w_t(-0.002977614757), w_t(-0.3405957222), w_t(-0.9237816334), w_t(-0.3925561309), w_t(-1.136971951), w_t(-0.04548415914), w_t(-0.2555831671), w_t(0.4208827019), w_t(0.1676734835), w_t(0.03875722364), w_t(0.1109203994), w_t(0.2571318746), w_t(0.4204654694), w_t(0.4897507727), w_t(-0.5532884598), w_t(-0.413379699), w_t(-0.4362432361), w_t(-0.7503936291), w_t(-0.6901254058), w_t(-0.5800818205), w_t(-0.5651686788), w_t(-0.8645393848), w_t(-0.3695702553), w_t(0.2221579105), w_t(0.4446501434), w_t(0.4890720546), w_t(0.9816150069), w_t(0.6149977446), w_t(0.5954228044), w_t(0.1152454019), w_t(0.3025068343), w_t(0.5575373769), w_t(-0.002012245357), w_t(-0.06491971016), w_t(-0.05780006945), w_t(0.1007696614), w_t(0.2078419328), w_t(0.3559871912), w_t(0.1346603334), w_t(0.4431879222), w_t(1.002949357), w_t(-0.2431842983), w_t(-0.02319428883), w_t(0.3891951442), w_t(-0.3291503787), w_t(-0.05658821017), w_t(0.509714067), w_t(-0.4020413458), w_t(-0.5729062557), w_t(0.3654992878), w_t(-0.4124779701), w_t(-0.5711327791), w_t(-0.4448357522), w_t(0.4929155409), w_t(-0.2038321644), w_t(0.002087082947), w_t(0.4922796786), w_t(0.3719371557), w_t(0.6127929091), w_t(-0.1717775315), w_t(-0.1379051059), w_t(0.105593726), w_t(0.1132962704), w_t(0.2491929233), w_t(-0.03840103745), w_t(-0.3006724119), w_t(-0.2503950596), w_t(0.3716312647), w_t(0.2025849968), w_t(-0.07601837069), w_t(0.3737861216), w_t(-0.5173373222), w_t(-0.6119659543), w_t(-0.256894201), w_t(-0.4855754077), w_t(-0.3557056487), w_t(-1.211386323), w_t(-0.2959466875), w_t(-0.01524495613), w_t(-0.4453265667), w_t(-0.4348557889), w_t(-0.4895751774), w_t(-1.03338635), w_t(-0.288318187), w_t(-0.6785630584), w_t(-0.5811254978), w_t(0.2578577101), w_t(-0.4434193969), w_t(-0.3661303222), w_t(-0.7129570246), w_t(-0.09930279851), w_t(0.9823353291), w_t(-0.6221929789), w_t(0.1192398146), w_t(0.2972909808), w_t(0.1529188454), w_t(-0.3504491448), w_t(0.0863724947), w_t(-0.1544359922), w_t(-0.09736038744), w_t(0.1325196624), w_t(0.05523697659), w_t(-0.2058529109), w_t(-0.02637859993), w_t(-1.170399308), w_t(-1.548442483), w_t(-0.8286561966), w_t(-0.5581098795), w_t(-1.22658813), w_t(-0.7182129622), w_t(-0.8185557723), w_t(-0.3524249196), w_t(-0.4341671169), w_t(-0.09776448458), w_t(-0.2941633463), w_t(-0.8083844781), w_t(-0.2782359421), w_t(-0.224097535), w_t(-0.3630428016), w_t(-0.6421797872), w_t(-0.2210404575), w_t(-0.2863384485), w_t(0.8145022392), w_t(1.007804513), w_t(0.5517759919), w_t(1.079594254), w_t(0.5081750154), w_t(0.6031690836), w_t(0.2896907628), w_t(-0.07540130615), w_t(0.6223941445), w_t(-0.7678352594), w_t(-0.3882809579), w_t(-0.2477071583), w_t(-0.2287573516), w_t(-0.2511168122), w_t(0.1679963022), w_t(-0.3263170719), w_t(-0.2921924293), w_t(-0.1279562712), w_t(-0.3573370278), w_t(-0.5311001539), w_t(0.1313534975), w_t(0.1722796708), w_t(-0.1394601911), w_t(0.07219922543), w_t(-0.4440672696), w_t(0.5100595355), w_t(0.4006057084), w_t(0.5279786587), w_t(0.009764636867), w_t(0.3177131414), w_t(0.9564244747), w_t(-0.04558834806), w_t(0.01358977985), w_t(-0.2699883878), w_t(0.02210721187), w_t(-0.01006155275), w_t(0.7722241879), w_t(0.2062722445), w_t(0.3658773601), w_t(0.8489146829), w_t(0.09128135443), w_t(0.4882820249), w_t(0.3948369622), w_t(-0.03273687139), w_t(-0.04763989896), w_t(0.1675845385), w_t(0.4787750542), w_t(0.421433717), w_t(0.4248998463), w_t(0.5555812716), w_t(0.3792241216), w_t(-0.8694843054), w_t(-0.322550118), w_t(-0.1338534057), w_t(-0.3555485308), w_t(-0.2209163308), w_t(-0.05154818296), w_t(0.02321312204), w_t(-0.2975955307), w_t(-0.06274783611), w_t(-0.5575077534), w_t(-0.1624432653), w_t(0.2445718944), w_t(0.1711759716), w_t(-0.1301544756), w_t(0.2849972844), w_t(0.8161305785), w_t(0.09456662089), w_t(0.6461057663), w_t(0.4249464273), w_t(-0.4643701315), w_t(-0.4867711365), w_t(0.1980321407), w_t(-0.03264972195), w_t(-0.08487215638), w_t(0.2449806035), w_t(-0.3336172998), w_t(-0.01064567175), w_t(0.3340674043), w_t(-0.1447239369), w_t(0.5758267641), w_t(-0.1543082297), w_t(-0.4909270704), w_t(-0.5787525177), w_t(-0.4509960115), w_t(-0.3029140532), w_t(-0.3478118181), w_t(-0.3085831702), w_t(0.200158909), w_t(0.3956128061), w_t(-0.3846251965), w_t(-0.06305001676), w_t(0.5034567714), w_t(0.6010810137), w_t(0.2048694938), w_t(-0.282288909), w_t(0.4200163186), w_t(0.09484186769), w_t(-0.5761985779), w_t(-0.07312341779), w_t(-0.1900655478), w_t(0.6541202068), w_t(0.7045384645), w_t(0.7028664947), w_t(1.966919303), w_t(0.03816867992), w_t(0.3509349525), w_t(0.643605113), w_t(0.2199040353), w_t(-0.3762085438), w_t(-0.9092994928), w_t(0.08143159002), w_t(0.03778828308), w_t(0.7025765181), w_t(-0.1807167828), w_t(-0.4677110314), w_t(0.5329307318), w_t(0.1208546758), w_t(0.06242031977), w_t(0.05696895719), w_t(0.01818463579), w_t(-0.165574491), w_t(-0.2791586518), w_t(-0.3471358418), w_t(-0.3427284658), w_t(-0.1541495323), w_t(0.5623034835), w_t(0.4605599344), w_t(0.42423895), w_t(0.3749821186), w_t(0.6262926459), w_t(0.6757300496), w_t(0.2088512927), w_t(0.4159526527), w_t(0.6834658384), w_t(0.4938320816), w_t(0.03202709928), w_t(0.1181539372), w_t(0.2033973634), w_t(0.1638265699), w_t(-0.08727221191), w_t(-0.06190909073), w_t(0.2437868416), w_t(-0.299488306), w_t(-0.3517170548), w_t(-0.3598411083), w_t(0.1923775226), w_t(-0.4049290121), w_t(0.4488738179), w_t(-0.1034678891), w_t(0.2192629725), w_t(0.5598881841), w_t(0.6315316558), w_t(0.1036652774), w_t(0.065330863), w_t(0.475812465), w_t(0.2575874031), w_t(0.4446820319), w_t(0.8337871432), w_t(0.2331150025), w_t(0.6150014997), w_t(0.5870303512), w_t(-0.4275228083), w_t(-0.5655930638), w_t(-0.4301430583), w_t(-0.8218678832), w_t(-0.3428343534), w_t(-0.2768892348), w_t(-0.6359995008), w_t(-0.2564511597), w_t(-0.02558754385), w_t(-0.08024186641), w_t(0.09388894588), w_t(-0.01519251149), w_t(-0.04610608891), w_t(-0.1700002849), w_t(0.1636646241), w_t(0.0643235594), w_t(0.4952963889), w_t(0.5172553062), w_t(-0.289129287), w_t(-0.01200145576), w_t(0.2647669315), w_t(-0.1564270109), w_t(-0.2958450615), w_t(-0.02668957412), w_t(-0.2809964418), w_t(-0.7001699209), w_t(-0.0007605194696), w_t(0.1680207253), w_t(-0.0169160068), w_t(0.3007057011), w_t(0.272598207), w_t(0.1255756021), w_t(0.2981669009), w_t(0.5117257237), w_t(0.3899335861), w_t(0.6647512913), w_t(0.1392766088), w_t(0.07065446675), w_t(0.03142257035), w_t(0.2929917872), w_t(0.4416238368), w_t(0.8024784327), w_t(0.2575929761), w_t(0.3076446652), w_t(0.3358125389), w_t(-0.2455391884), w_t(0.1327226013), w_t(0.8528494835), w_t(-0.2838234305), w_t(-0.1622202396), w_t(0.7156888247), w_t(-0.7301790714), w_t(-0.4922218621), w_t(0.01619101502), w_t(-0.5180081129), w_t(-0.4558361173), w_t(-0.3837681115), w_t(-0.0186298117), w_t(0.1096280292), w_t(0.4441961944), w_t(0.5303211212), w_t(0.6142235398), w_t(1.425033927), w_t(-0.06672292948), w_t(0.2676917315), w_t(0.03534318879), w_t(-0.1088214368), w_t(-0.05049649999), w_t(0.118384853), w_t(-0.4908839464), w_t(-0.2750274241), w_t(0.5658641458), w_t(0.2545002997), w_t(-0.01691486873), w_t(-0.2403576225), w_t(-0.2636570334), w_t(0.05238305405), w_t(-0.7209481597), w_t(0.2292872518), w_t(-0.2078551203), w_t(-0.5075398088), w_t(0.09501840919), w_t(0.05160085857), w_t(-0.2049125135), w_t(0.02661703713), w_t(-0.7447504401), w_t(-0.3030559123), w_t(-0.6693721414), w_t(-1.14784348), w_t(-0.850025475)};
static const w_t conv2_b[C2] = {w_t(0.692401588), w_t(0.2649229169), w_t(-0.4992297292), w_t(0.2626689672), w_t(0.5825678706), w_t(-0.2413336188), w_t(0.164135769), w_t(0.3009696603), w_t(-0.5525969267), w_t(0.004223540425), w_t(0.02161699533), w_t(0.3565533757), w_t(0.3802779615), w_t(-0.1863057315), w_t(0.08868020773), w_t(-0.4577341676), w_t(0.4242102504), w_t(-0.3004015982), w_t(0.09464541078), w_t(0.03918918967), w_t(0.4495961964), w_t(0.7013745308), w_t(0.6812041998), w_t(0.02144593), w_t(-0.05485188961), w_t(0.4746572077), w_t(0.01260788739), w_t(0.3931862414), w_t(0.08995112777), w_t(-0.2450621277), w_t(0.5584056973), w_t(-0.1441399157)};

